#Parameter# /vanilla-lstm-builder/_0 {128,64} 131073 ZERO_GRAD
-1.84346780e-01 +1.26389515e+00 -4.84319836e-01 -2.30189547e-01 +1.84975818e-01 +2.79268503e-01 +8.31867829e-02 +7.32854486e-01 +1.25933933e+00 +1.09521382e-01 +9.83413756e-01 -2.73363888e-01 -1.30715117e-01 -1.83762655e-01 -5.00967801e-01 -6.92829907e-01 +2.58529931e-02 +2.39209384e-01 -1.39593650e-02 -2.62242436e-01 +5.35380721e-01 +3.15833330e-01 -1.03026640e+00 -5.49314499e-01 +7.07483947e-01 -2.93721765e-01 -1.79072216e-01 +4.83515501e-01 +3.52943361e-01 +2.11826667e-01 +4.63310122e-01 +6.78281009e-01 -7.70090282e-01 +8.27280879e-01 -4.57180142e-01 -1.55434474e-01 -9.52227637e-02 -3.69234420e-02 +6.67389512e-01 +4.12371248e-01 +6.68221712e-01 -1.78076565e-01 +1.75147355e-02 +4.28869188e-01 -6.44274414e-01 +4.03998375e-01 -3.31179798e-01 -4.70182568e-01 -3.16498935e-01 +1.77134097e-01 +2.57739693e-01 -3.55585754e-01 -9.30317998e-01 -7.44136631e-01 -5.76901793e-01 +1.42956269e+00 -5.74463129e-01 -5.84735394e-01 -1.74664187e+00 -9.86271381e-01 -2.12382585e-01 +5.60602188e-01 +7.80426443e-01 +5.76017857e-01 -1.68819696e-01 -1.32339269e-01 +5.40097058e-01 +2.10232586e-01 +1.14128804e+00 -1.66365638e-01 -1.15304184e+00 -6.85475230e-01 -1.20564091e+00 -5.07583439e-01 -8.32638681e-01 +4.74917740e-01 -6.83761775e-01 -1.53378594e+00 -4.04551446e-01 +2.33974528e+00 -1.22183895e+00 -2.32506543e-01 -1.28594160e-01 -2.25266695e-01 +1.96608126e+00 -1.32392919e+00 +5.01490116e-01 -3.91087890e-01 -1.10088563e+00 +8.50414693e-01 +2.42662117e-01 -1.87906110e+00 +1.95545778e-01 +1.52690125e+00 +6.53941691e-01 +1.98572442e-01 +1.47702456e-01 +3.11515540e-01 +1.00842081e-01 +3.98389637e-01 +1.01850450e+00 +5.55076063e-01 -2.78611451e-01 -1.21456087e-01 +9.19824094e-02 +1.10700321e+00 -5.08580148e-01 -1.94783658e-01 +5.05378067e-01 +3.52838546e-01 +4.03649747e-01 -4.97670978e-01 +1.50765926e-01 +1.62634328e-01 -4.93026316e-01 +5.12837648e-01 +3.15177709e-01 +2.29598299e-01 -1.18585038e+00 -1.39718384e-01 -9.08274174e-01 +7.27246225e-01 -2.14349583e-01 +1.09253891e-01 -4.27768417e-02 +3.39972138e-01 -5.14968753e-01 -3.25448185e-01 -1.94126800e-01 +6.40594661e-02 +1.05036363e-01 +4.42417353e-01 -4.16994542e-01 +4.19839263e-01 -6.61699712e-01 -4.81026843e-02 +8.84581685e-01 -3.49482864e-01 -1.81237265e-01 -8.36868703e-01 -3.27186227e-01 +2.33028382e-02 +1.12611189e-01 -8.32420308e-03 -2.49231055e-01 +4.86633539e-01 -3.83010894e-01 +7.19621256e-02 +1.34012401e-01 +8.16594839e-01 +8.55337262e-01 -1.49781540e-01 -1.43223524e-01 +5.96268058e-01 -9.10940096e-02 +6.32692158e-01 -1.67579487e-01 -1.39204636e-01 -1.87471956e-01 +2.38019079e-01 +1.84238866e-01 +2.20155746e-01 -5.04478455e-01 -1.30818939e+00 -5.41941263e-04 +8.18449497e-01 -1.74637914e-01 -1.88822016e-01 -5.74150205e-01 +7.58762658e-02 +3.32503825e-01 +2.24033251e-01 +2.31444970e-01 +7.30114281e-02 +2.48799194e-03 -7.29107440e-01 +2.81470299e-01 +4.20885086e-01 -2.93553263e-01 -4.16134685e-01 +2.96564430e-01 -1.32778138e-02 -1.11851931e-01 -1.99408293e-01 -5.25729656e-01 +3.96292984e-01 -6.24101520e-01 +1.10623881e-01 -2.38278415e-02 -6.33573532e-01 -1.99868098e-01 +9.16499496e-02 +5.65151632e-01 +7.60811388e-01 +3.68589610e-01 -1.00324130e+00 +6.54613078e-01 +1.86396971e-01 +1.76252097e-01 -2.77692497e-01 -1.08870363e+00 -4.67364714e-02 +3.56468558e-01 +6.68267190e-01 +4.62819636e-01 -1.10799086e+00 -3.36910635e-02 -2.44239599e-01 -5.73007405e-01 +6.08794987e-01 +2.60430694e+00 +3.42689931e-01 +2.77821958e-01 +9.81560111e-01 -1.28782406e-01 +8.19557488e-01 -1.04171658e+00 +1.47566807e+00 -6.86459959e-01 +9.02650833e-01 +4.28425074e-01 +1.34558964e+00 -8.99089992e-01 +4.64830816e-01 -4.07189965e-01 -4.29191291e-01 +3.41252953e-01 +2.15683669e-01 -1.92406788e-01 +5.72104335e-01 +3.53290856e-01 -2.90132850e-01 -2.01213792e-01 +3.32071871e-01 +6.60316765e-01 -4.61017117e-02 +4.30437848e-02 -3.21686864e-01 +7.99027741e-01 -1.37034655e+00 -4.39992130e-01 +1.73685348e+00 +6.25918686e-01 +5.10660172e-01 -1.19283247e+00 -3.41012836e-01 -6.52552128e-01 +9.81541276e-01 -1.76853925e-01 -1.80477619e-01 -4.81629133e-01 +5.66483021e-01 -3.70060772e-01 +2.18052685e-01 +9.34370682e-02 +3.34983557e-01 -8.92844617e-01 -1.08236873e+00 +3.34579527e-01 +1.16056450e-01 +7.52134845e-02 +4.62758839e-01 -2.82537669e-01 -4.18855548e-01 -7.88271487e-01 +3.55945557e-01 -8.64386320e-01 +7.35658169e-01 -3.97221059e-01 +3.52474332e-01 +5.89297533e-01 +1.88700482e-01 -2.51453847e-01 -4.63830054e-01 -7.30421126e-01 +3.63252759e-01 +6.60510182e-01 -3.78834419e-02 +2.92502224e-01 -1.30801570e+00 -5.40206850e-01 +4.70265299e-01 -2.57463664e-01 -4.05030638e-01 -1.82076231e-01 +5.68168044e-01 -5.88461816e-01 +1.58922702e-01 +3.26012194e-01 -3.26395720e-01 +2.29069084e-01 +5.03446311e-02 +2.28661105e-01 -2.76997119e-01 -1.92412347e-01 -2.42235467e-01 -2.26633176e-01 +7.16283917e-02 +1.08044517e+00 +5.63773453e-01 -9.13956404e-01 +1.50126541e+00 +2.09465340e-01 +8.18084598e-01 -4.89495158e-01 -5.57820320e-01 -3.45429301e-01 -2.05233749e-02 +1.69780210e-01 -3.11029796e-03 -5.80185235e-01 -8.74820650e-01 +1.26892257e+00 +1.04154575e+00 -5.83327830e-01 +5.48883915e-01 +2.18649313e-01 -8.48686099e-02 -3.54587436e-01 -4.34708118e-01 -4.79595542e-01 +7.17607796e-01 -5.67529202e-01 -3.73945355e-01 +4.88112479e-01 -5.58769368e-02 -4.87284362e-01 +1.23694658e+00 -6.22400939e-01 +5.56865871e-01 -9.45875585e-01 -2.74619699e-01 -7.77222067e-02 +8.52593362e-01 -2.92005122e-01 -1.47445604e-01 +1.46955192e+00 +2.75950171e-02 -1.29988432e+00 +1.56571850e-01 -1.72680974e+00 -3.05110365e-02 +2.82802522e-01 -5.02917945e-01 +6.24091387e-01 -2.41984740e-01 +3.32908362e-01 -1.16875604e-01 -6.18316233e-01 +4.67674166e-01 +8.78621578e-01 -7.84745812e-01 +2.94054329e-01 +2.98173279e-01 +1.94121455e-03 +4.72886503e-01 -2.39146322e-01 -7.94344723e-01 -1.99705645e-01 -5.51193774e-01 +2.33659800e-02 -3.57255429e-01 -1.71057731e-01 -3.26661021e-01 +2.56037135e-02 +2.03648493e-01 -9.27140594e-01 +5.20085573e-01 +3.81139547e-01 +3.54460806e-01 +4.11480069e-01 +3.80763561e-01 +5.59352815e-01 -4.00223672e-01 +3.55449945e-01 -4.37191755e-01 -1.99390814e-01 -5.28612912e-01 -3.60573232e-01 +9.91452709e-02 +1.77481741e-01 +2.51003921e-01 +5.48437715e-01 +1.36716202e-01 +5.47433943e-02 -3.90101165e-01 +5.31478345e-01 +5.42748630e-01 -2.30856970e-01 +2.10334957e-01 +1.27511665e-01 +2.59706706e-01 -9.87600768e-04 -3.49767394e-02 +6.81831062e-01 -3.07909489e-01 +4.84543860e-01 +5.72441280e-01 +5.80580812e-03 +4.62965101e-01 +4.92821723e-01 +1.52329504e-01 +4.02014256e-01 +2.35440776e-01 +2.44748458e-01 -2.60124058e-01 +8.84635687e-01 +3.62974495e-01 -1.50912791e-03 +6.84528649e-01 +5.86471796e-01 +3.75943601e-01 -1.49143552e-02 +6.19829781e-02 +2.19496876e-01 +8.71916711e-01 +8.97312701e-01 -1.17089540e-01 -3.52008849e-01 -3.55185539e-01 +4.75672901e-01 +2.97805011e-01 +2.78880633e-02 +2.24685147e-01 -1.10883701e+00 +3.67994338e-01 -7.21927762e-01 -6.15445852e-01 +1.06140947e+00 -3.64015996e-01 -9.55582559e-02 +2.78557208e-03 -1.62309229e-01 +3.45043838e-01 +1.61570811e-03 +2.44764820e-01 +1.62738875e-01 -3.06589603e-01 +5.13803244e-01 +4.98857051e-01 +6.78093582e-02 +1.67546466e-01 -1.65325820e-01 -8.30773354e-01 +7.34860525e-02 -2.58462489e-01 -4.14515972e-01 +4.08025026e-01 +4.97623533e-01 -2.71890759e-01 -1.31514400e-01 -6.01514220e-01 +5.28620481e-01 -5.43858588e-01 +3.70691895e-01 +5.63428342e-01 +1.52046001e-02 +4.94520396e-01 +4.84053522e-01 -5.85014410e-02 +4.80589181e-01 +5.32561719e-01 -6.30691767e-01 -5.75157702e-01 -1.21686924e+00 -5.41678444e-02 +3.10824037e-01 -2.68169612e-01 +3.05837452e-01 -4.49899167e-01 +3.25554572e-02 +5.19707382e-01 +3.54496479e-01 +8.20645988e-01 +6.08587861e-01 +1.46056548e-01 +1.86887413e-01 -1.65627226e-01 -8.63468945e-02 +2.09351122e-01 +1.49172425e-01 +1.71759963e-01 +1.37507766e-01 -4.15686488e-01 -2.60127455e-01 +1.21872507e-01 +1.26067355e-01 -7.48891383e-02 -2.80831248e-01 -4.35554177e-01 -3.23881865e-01 +4.45909768e-01 +4.90697265e-01 -1.09197693e-02 -2.08936613e-02 +4.68008310e-01 -2.89559841e-01 +1.66245311e-01 +7.38533854e-01 -2.16343537e-01 -6.72289491e-01 -7.06142604e-01 -6.79857731e-01 -9.16685283e-01 -2.75800284e-03 +1.35876846e+00 +3.92680496e-01 -3.77423793e-01 +2.82764047e-01 +2.56899416e-01 +2.49931768e-01 +4.29994494e-01 -1.87478289e-01 -1.70582131e-01 -1.68814529e-02 -1.99990660e-01 +2.25738138e-01 -3.43651742e-01 -1.58146203e-01 +9.48254205e-03 -5.67018211e-01 +1.10618442e-01 -6.70755565e-01 +2.77151793e-01 +4.35517997e-01 +2.53553182e-01 -2.37180635e-01 +2.91642606e-01 -9.04506147e-01 +2.52040386e-01 -2.52424359e-01 -4.24103767e-01 +6.96102679e-01 -1.58206895e-01 +8.43082309e-01 +2.09582269e-01 -4.75078076e-01 -1.04104385e-01 -2.30764896e-01 +1.05356984e-02 -9.44068372e-01 -1.02835262e+00 -3.65111232e-01 -1.19466275e-01 +2.07737252e-01 -9.05489773e-02 -3.63068789e-01 +1.13561302e-01 -1.19853362e-01 -7.62691796e-02 +3.62535834e-01 -2.59491146e-01 +3.33429068e-01 -8.96367848e-01 +8.64216909e-02 +1.93662986e-01 +3.75513345e-01 -3.21992546e-01 -1.84992716e-01 +2.94692874e-01 -5.59322894e-01 -1.63592890e-01 +2.86576927e-01 -1.48283318e-01 -1.18461356e-01 +4.95208800e-01 -2.96888471e-01 -4.26446617e-01 +1.38828352e-01 +1.66242607e-02 +9.42387402e-01 +6.49719656e-01 -6.42582655e-01 -1.05276806e-02 -8.07558149e-02 +7.02629328e-01 -7.18397558e-01 -9.44440722e-01 -2.26318523e-01 -3.50437790e-01 -2.99066961e-01 +2.12815031e-01 -4.48583335e-01 +5.20615280e-01 +4.18154150e-01 -9.58082378e-01 -3.96860540e-01 -1.58669829e+00 -1.69839561e-01 +2.63272911e-01 -8.37552369e-01 -8.32317472e-01 +6.20211124e-01 -3.99942368e-01 -3.75235349e-01 -7.62264550e-01 -6.91399872e-02 +3.95230740e-01 +2.42990881e-01 +1.64130330e-01 +4.86650944e-01 -1.61177829e-01 -1.44208670e-01 +8.77037168e-01 +1.17699265e+00 -2.25580573e+00 -1.57641843e-01 -3.62210602e-01 +1.76088661e-01 -2.80940443e-01 +5.98995864e-01 +2.79365242e-01 +2.14795157e-01 -7.25834727e-01 +8.35913047e-02 +3.00243974e-01 +8.69477391e-01 -7.01416209e-02 +2.79418498e-01 +2.99454570e-01 -3.31321985e-01 -1.17527783e+00 -4.88013290e-02 +2.42303461e-01 +1.32182002e-01 +1.05309121e-01 +3.89075875e-01 +3.70474726e-01 +2.84919534e-02 +2.61816084e-01 +5.56723595e-01 -5.67798615e-01 -2.98422705e-02 -5.47071546e-02 -8.32075924e-02 -1.91921860e-01 -2.40525603e-01 +3.99647117e-01 +4.24632341e-01 +1.44167140e-01 +5.66212893e-01 -1.00122511e+00 +5.03130019e-01 +6.85564995e-01 -1.26541853e-01 +2.61201352e-01 +1.24229121e+00 +7.11340904e-01 +5.64642966e-01 -9.04040515e-01 +3.44456255e-01 +2.22002327e-01 +6.28996432e-01 +5.04345894e-02 +4.44952011e-01 -3.14217657e-01 -4.14841861e-01 -5.47731340e-01 -2.83526957e-01 -3.21605861e-01 +8.56189668e-01 +8.06913316e-01 +1.01489925e+00 -1.51757851e-01 +2.89963573e-01 +2.85499871e-01 +8.98113251e-01 +1.11881971e+00 -5.42156816e-01 -3.67671430e-01 -1.97024763e-01 +9.29018855e-02 -1.09321259e-01 +1.04262245e+00 -1.24624896e+00 -4.61776793e-01 -4.47422326e-01 -6.23849928e-02 +1.32940340e+00 +1.05460835e+00 -8.58259737e-01 +2.19004408e-01 -2.72695035e-01 -3.45801473e-01 -7.10602999e-01 -5.34493029e-01 +1.08912826e+00 -7.83285916e-01 +5.23404405e-02 +5.97420096e-01 +3.08107406e-01 +5.50410859e-02 -8.69401217e-01 -4.71307665e-01 -1.35137320e-01 -9.18462873e-02 -6.46664202e-01 -6.05398379e-02 -5.04611768e-02 +2.20748693e-01 -1.55589268e-01 +3.84382278e-01 -4.96389605e-02 +3.61522317e-01 +4.72332805e-01 +7.00963318e-01 +1.29573619e+00 +7.07261741e-01 +1.05945542e-01 -1.18925750e+00 +4.08700913e-01 -9.01529014e-01 -1.20403636e+00 -2.60744363e-01 +4.09821928e-01 +8.09129715e-01 +1.61261782e-01 -6.82151258e-01 +4.03308332e-01 +1.22573245e+00 -1.00273979e+00 +3.90648335e-01 +1.17593563e+00 +1.44233823e+00 +1.63242126e+00 -1.06597459e+00 +4.08869656e-03 +9.75718141e-01 +3.19927961e-01 +1.45277059e+00 -4.02995110e-01 -1.99497029e-01 -1.01567423e+00 +1.04517746e+00 +8.67487252e-01 +5.67602456e-01 +2.91746929e-02 +2.92749763e-01 -7.09740698e-01 -6.55968785e-01 -5.43170214e-01 -3.02387867e-02 -1.08539224e-01 +2.27621436e-01 -6.80723310e-01 +3.60281527e-01 -1.79541960e-01 -8.09458554e-01 +1.10298179e-01 +3.69428724e-01 -5.71449026e-02 -1.16193676e+00 -4.05260548e-02 +4.64118980e-02 -6.20129824e-01 -1.09097153e-01 -8.85774493e-01 -7.19945133e-01 -2.83150464e-01 -1.48585364e-01 -3.88110936e-01 +6.31769419e-01 -1.74561083e-01 +5.27667582e-01 +3.18591565e-01 +1.22555149e+00 -2.43806224e-02 +6.53714120e-01 -3.63788694e-01 -3.56087506e-01 +5.16327620e-01 +6.96702540e-01 +1.42908180e-02 +1.76258564e-01 -2.80501276e-01 -1.44547254e-01 -3.41026455e-01 +1.15630589e-01 -6.43511191e-02 -4.36928123e-01 +1.04342267e-01 +4.22611028e-01 +1.65417433e-01 +7.12871730e-01 -2.59167701e-01 +1.34231234e+00 -7.58861780e-01 +3.38078924e-02 +2.49912277e-01 +2.62972355e-01 -1.40855074e-01 -4.49708432e-01 +9.81740095e-03 +4.68450993e-01 -7.11941347e-02 -1.90142959e-01 -6.81716979e-01 -3.26494649e-02 -2.30516434e-01 +3.84136558e-01 +1.29839718e-01 -6.04574203e-01 +2.13283107e-01 -2.19563976e-01 +4.68679905e-01 +9.69892323e-01 +8.26926678e-02 -4.49969977e-01 -1.06576234e-01 -1.87890455e-01 -9.26604271e-02 -2.06644192e-01 +3.31227690e-01 +8.57633889e-01 -3.99964243e-01 +7.13459492e-01 +5.78385666e-02 -4.87068325e-01 +2.94526249e-01 -2.63216108e-01 -4.39285152e-02 -3.15837592e-01 -3.51818651e-02 -8.31030786e-01 +3.37995321e-01 -2.06511781e-01 +4.72063184e-01 -4.65643495e-01 -6.74999803e-02 -1.09907784e-01 +5.24347015e-02 +3.20422709e-01 +2.56508827e-01 -2.32885867e-01 +2.25338370e-01 +7.91668799e-03 +1.36992577e-02 -7.57507384e-01 +1.14237797e-02 +2.83915728e-01 -4.68161255e-02 +2.47942731e-01 -4.66240317e-01 -4.47696954e-01 +2.49056846e-01 -1.98757648e-03 -1.94709213e-03 -2.39846140e-01 +5.64578995e-02 +3.01896036e-01 -2.27332219e-01 -2.45905757e-01 -1.52834117e-01 +7.78237730e-02 +5.00024438e-01 +4.47534353e-01 -3.26109469e-01 -2.89944023e-01 +1.55054390e+00 -6.64324105e-01 +2.15892076e-01 -1.59390837e-01 +4.69029337e-01 +2.03926042e-01 +5.60778618e-01 +4.88847136e-01 -3.37828308e-01 -8.64288863e-03 -4.68159318e-01 +2.02971235e-01 -1.83816209e-01 -2.59539783e-01 -6.74536884e-01 +1.83469757e-01 -3.39372247e-01 +6.33117259e-02 +6.69899523e-01 +5.11237159e-02 -3.29259515e-01 +5.89580595e-01 +1.35669813e-01 -5.66939354e-01 +4.10241097e-01 -4.47896361e-01 -1.43834159e-01 +6.19604215e-02 +2.74249643e-01 -1.69820175e-01 -6.11093462e-01 -3.09820920e-01 -2.22326256e-02 -2.06126198e-01 +2.95951515e-01 +1.11341281e-02 +3.68190974e-01 +1.96271375e-01 -5.03890157e-01 +3.85041982e-01 +1.32388085e-01 -8.61780107e-01 -7.64992654e-01 -6.60570860e-01 +2.17238128e-01 -7.83739686e-01 +2.13782027e-01 +3.57755601e-01 +2.02835668e-02 +1.36310399e+00 +1.65695056e-01 +4.56587195e-01 +5.99600255e-01 +4.10465062e-01 -5.94667852e-01 -8.14992338e-02 -1.92289278e-01 -7.21786395e-02 +1.19185054e+00 -5.59343696e-01 -1.77291179e+00 +6.16975069e-01 +4.87815946e-01 -1.37605691e+00 +1.60893798e-01 -3.91147882e-01 +3.40014666e-01 +6.78765655e-01 -3.46598178e-01 -6.11507416e-01 +3.83261681e-01 -6.02553964e-01 -6.65741920e-01 +8.28528166e-01 +5.52356206e-02 +1.45527557e-01 -4.01884735e-01 -3.54183733e-01 -3.54534924e-01 -3.28576505e-01 -5.13523877e-01 +3.86763752e-01 +5.79763174e-01 +3.36270154e-01 -3.57739896e-01 +9.46486115e-01 -9.40437138e-01 +1.68400049e-01 -4.38014358e-01 +1.66309118e-01 +3.43642741e-01 +3.00190926e-01 -3.85777891e-01 +3.65752727e-01 +1.11453682e-02 -9.64514971e-01 +9.55083191e-01 -6.58180192e-02 -4.15314697e-02 -7.06723213e-01 -5.66335693e-02 -3.26135874e-01 +4.32367086e-01 -3.90076846e-01 -5.06412208e-01 +2.75912613e-01 +3.08142185e-01 +3.22005123e-01 +1.59786254e-01 +2.09408849e-01 -1.73725620e-01 -4.65881258e-01 -8.33446145e-01 +3.33493412e-01 -2.23149985e-01 +1.73489308e+00 -4.82771903e-01 +6.95050061e-01 +8.86393845e-01 -7.98740685e-01 -1.08337402e+00 -8.81623011e-03 +3.35671365e-01 +9.86497223e-01 -3.39691818e-01 -9.17804301e-01 -2.57162929e-01 -1.18427515e-01 +3.81685019e-01 +8.88519883e-01 -2.88887888e-01 +2.06958815e-01 -8.81942809e-01 -6.65133834e-01 +5.40745743e-02 +1.07815671e+00 +5.74313045e-01 -1.09742984e-01 -3.51908356e-01 -1.47593707e-01 +6.21450484e-01 -3.39677930e-01 -2.31681153e-01 -2.21898165e-02 +2.15786219e-01 +2.82819659e-01 -1.19935006e-01 -3.31486374e-01 +3.11630577e-01 +1.90226883e-01 +8.74037325e-01 +1.01444818e-01 -3.17962140e-01 +7.87687898e-01 +8.11533928e-01 +3.20845038e-01 +8.73299003e-01 -1.69197962e-01 +2.22421616e-01 -1.87139675e-01 -7.59604573e-01 -2.46438816e-01 +7.21972466e-01 -1.30297875e+00 -1.59994096e-01 -4.72515792e-01 +1.27904761e+00 -5.47173917e-01 +1.48780704e-01 -1.18469067e-01 -6.51169792e-02 +6.77366197e-01 +6.93478286e-01 +2.78860688e-01 +2.38169700e-01 -1.54430747e-01 +4.72640514e-01 +5.64456582e-01 -3.11069310e-01 +5.13157584e-02 +1.02152038e+00 -2.42689952e-01 +6.68560445e-01 +8.89100805e-02 +5.50362885e-01 +5.36810458e-01 +3.79895568e-01 +8.71513665e-01 +6.24009371e-02 +2.92033572e-02 +5.53520620e-01 +6.56780541e-01 -1.86562669e-02 +3.82485747e-01 +7.64194489e-01 -2.43289955e-02 +6.18211925e-01 +6.78003281e-02 -1.45731986e-01 -3.98087770e-01 -4.94426459e-01 +1.19415991e-01 -6.31676733e-01 +5.89559555e-01 +1.05485842e-01 -1.06530838e-01 -4.34304655e-01 +4.18093860e-01 -3.75866145e-02 -2.89229900e-01 -9.66061711e-01 -6.65764272e-01 -1.35110617e-01 -5.61764650e-03 +5.52857280e-01 -3.07580829e-01 +5.92723668e-01 -1.13770497e+00 -8.51226568e-01 -5.90851068e-01 +4.16799754e-01 +2.94007361e-01 -5.81461251e-01 +6.92645833e-02 -6.04042038e-02 -4.83430952e-01 +4.94012922e-01 -1.25227138e-01 +2.53258377e-01 -3.13701481e-01 +8.46074671e-02 -2.58158565e-01 +1.20990407e+00 +1.24130177e+00 +1.82958925e+00 -3.09952527e-01 +1.24609433e-01 +5.07351421e-02 -1.12156689e+00 -9.76039290e-01 -9.96180534e-01 +1.27007127e-01 +3.31614733e-01 -9.88081336e-01 -7.52216503e-02 +1.81432056e+00 -2.61878669e-01 -3.02628726e-01 -4.18946296e-01 +6.05895698e-01 +1.75449836e+00 -1.16023171e+00 +1.48428567e-02 -9.87951383e-02 -7.09579945e-01 -4.02832687e-01 -5.28734505e-01 -7.92784631e-01 -8.72515321e-01 -3.19999568e-02 +2.60164052e-01 +1.04047871e+00 +9.97051895e-01 +1.15094233e+00 -5.30534565e-01 -2.17016861e-01 -5.59225559e-01 +8.51524591e-01 -6.88166246e-02 +6.34932101e-01 -1.77696988e-01 +3.78734291e-01 -1.73640996e-01 -3.80256802e-01 +2.49952763e-01 +2.38756478e-01 +9.00955945e-02 -3.78873269e-03 -2.19615281e-01 +2.09294185e-01 -6.11415207e-01 -5.93380965e-02 -4.61638182e-01 +2.17765689e-01 -1.97754908e+00 -9.66955647e-02 -4.19114411e-01 +2.29208782e-01 -6.21154904e-01 +5.58346450e-01 +1.06351352e+00 +7.89434910e-01 -5.13681531e-01 -1.90047905e-01 -3.44057471e-01 -5.00018358e-01 +6.33461714e-01 +2.34046683e-01 -6.65281475e-01 +5.40922821e-01 -5.43953896e-01 -6.07164681e-01 -3.10780760e-02 +9.69585776e-03 -7.06621468e-01 -4.36002523e-01 -1.96515501e-01 -7.22604454e-01 +2.17889354e-01 +3.43678921e-01 -1.99225601e-02 +5.21136999e-01 -8.13705921e-01 +1.58863425e-01 +2.83017814e-01 +6.36491254e-02 -3.88225704e-01 -5.42947829e-01 -1.16385150e+00 -1.71348900e-01 -4.23082024e-01 +2.50298101e-02 -2.12725639e-01 +1.45187348e-01 -1.20382242e-01 +4.23977971e-02 -2.34046400e-01 -2.84290552e-01 +9.93023515e-01 +3.52010727e-01 -2.65729398e-01 -1.26589581e-01 -6.90543115e-01 -6.58064663e-01 +7.89915979e-01 -5.34608625e-02 +8.51183355e-01 +3.61284494e-01 +7.90138602e-01 +1.49164364e-01 +7.52858967e-02 +2.85160661e-01 -6.06479309e-02 +2.78551783e-02 +3.52374345e-01 -1.64840110e-02 -2.08168775e-01 +7.42339253e-01 +1.61921874e-01 -6.40007138e-01 +5.28426051e-01 +4.08217847e-01 +1.01648295e+00 +8.28360856e-01 +2.02571284e-02 +6.28552735e-01 +4.22429115e-01 +4.31073666e-01 +4.48238045e-01 +1.54450476e+00 +3.18320453e-01 -1.63665548e-01 +1.13616996e-02 +5.85772932e-01 -1.73593629e-02 -7.58070529e-01 +2.51400530e-01 -8.49515080e-01 +3.46144408e-01 -1.60547078e+00 -4.87196058e-01 -9.18036222e-01 +8.06348979e-01 -4.92045909e-01 +2.64264077e-01 +1.10607934e+00 +5.94470084e-01 +1.07713819e-01 -1.43316090e+00 +4.98077273e-01 +1.31934479e-01 -1.36237156e+00 +8.06553885e-02 -1.17728621e-01 -5.82000256e-01 -1.70767590e-01 +3.35420638e-01 -3.66608351e-01 -1.65708408e-01 -7.97684133e-01 +7.10681617e-01 +5.95786214e-01 -4.24772143e-01 +3.31133783e-01 +2.47181237e-01 +2.36108884e-01 -3.74125838e-01 +4.31727804e-02 +1.03536740e-01 +7.21851707e-01 -3.40037584e-01 +8.51393044e-02 -3.34839076e-01 +1.67905390e-01 -1.62898317e-01 -6.98888302e-02 +6.72870815e-01 +1.87074214e-01 +1.08376965e-01 +8.50420073e-02 +6.35130763e-01 -1.55862989e-02 -2.27820292e-01 +1.21173668e+00 +1.08242142e+00 -5.19800246e-01 -4.76743840e-02 -1.19560778e-01 -4.20696646e-01 -7.18296766e-01 -4.84575421e-01 +4.48205143e-01 +6.08364344e-01 +2.00294062e-01 +2.91854858e-01 -1.05264914e+00 +8.98860395e-01 -8.32283139e-01 -2.05142900e-01 -1.34959996e+00 -5.03798604e-01 -2.98816293e-01 -4.32789534e-01 +3.52630824e-01 +1.56097913e+00 -3.41516137e-01 +5.81371188e-01 -2.38039792e-01 -1.26199472e+00 -2.02447787e-01 +2.83540964e-01 -4.62840915e-01 +7.34043300e-01 +2.62257066e-02 +1.08593607e+00 -2.76098642e-02 -4.87395078e-01 -2.93655187e-01 -1.06696174e-01 +9.67303365e-02 -6.05133414e-01 -5.94915330e-01 +4.84237671e-01 -1.46555424e+00 +1.08647689e-01 -7.43252516e-01 +3.03903133e-01 +2.87738472e-01 -1.43419936e-01 +5.41896105e-01 +1.16375065e+00 -2.34071314e-01 +2.53123432e-01 -7.74631262e-01 -3.74750555e-01 +3.98751736e-01 -2.92652637e-01 -5.63205063e-01 -4.67665233e-02 +4.77254570e-01 -2.50022382e-01 -1.07580280e+00 -6.96524322e-01 -3.03651765e-02 +1.15128529e+00 +9.38404322e-01 -1.08919168e+00 +5.23352697e-02 +4.56560314e-01 +2.42390454e-01 +9.87193286e-01 -1.89223036e-01 -1.59403071e-01 +8.42652440e-01 -5.33911474e-02 -8.71013343e-01 -2.68139243e-01 -6.85253978e-01 -5.85827567e-02 +1.94969580e-01 +1.17845133e-01 +3.89650136e-01 -9.50798333e-01 +1.21670783e+00 +3.84023190e-01 -8.56175840e-01 -4.06564385e-01 -4.16651160e-01 -5.71253262e-02 +1.24430813e-01 -1.11498499e+00 +5.80898046e-01 +6.74363792e-01 -7.68934190e-01 -2.26306558e-01 -2.43883803e-01 -6.13377154e-01 -2.83970892e-01 -2.74069071e-01 +4.93625075e-01 -7.73152858e-02 -1.28904915e+00 -2.12975025e-01 +2.76052713e-01 +1.65222633e+00 -7.70132363e-01 -8.41444075e-01 -6.32374525e-01 +1.96520284e-01 -4.47599977e-01 +2.84788549e-01 +1.19305873e+00 -1.88870598e-02 -2.43033230e-01 +3.09700638e-01 -2.88966089e-01 +2.35041082e-01 +3.62853587e-01 -2.90887803e-01 +7.38525450e-01 +1.53371796e-01 -7.55210102e-01 +7.79122174e-01 +3.28455977e-02 +8.42191458e-01 -9.30905342e-02 +4.88275997e-02 +2.11339548e-01 -3.21176685e-02 +2.39039689e-01 +6.14703715e-01 +5.25578916e-01 +7.12009072e-01 -9.40859616e-01 -1.24143757e-01 -1.04256189e+00 -4.48683411e-01 -2.61917651e-01 -1.17920756e-01 -1.01889312e+00 -1.58945814e-01 -4.75524902e-01 +5.98633826e-01 +4.87248957e-01 +2.33292460e-01 -7.46983707e-01 +3.00261408e-01 +4.05852675e-01 +1.16871700e-01 -6.68379217e-02 +2.63146251e-01 +3.73502225e-01 -1.04526274e-01 +4.13891613e-01 -1.78735718e-01 +7.23622084e-01 +1.83006927e-01 +5.09045839e-01 -1.53843299e-01 -2.07709625e-01 -3.49375755e-01 +1.16119780e-01 +1.36045620e-01 -3.10547590e-01 +1.08219810e-01 +7.34720111e-01 -1.01251379e-01 +1.55211270e-01 -8.88578057e-01 +3.15386772e-01 -6.86509311e-01 +1.87654749e-01 +4.95889872e-01 -2.83190347e-02 -7.30825663e-01 -1.14516628e+00 +5.34987748e-01 +4.93329197e-01 +7.35745132e-01 -2.68125176e-01 -8.44597161e-01 -3.84385377e-01 +2.65668780e-01 -2.07407370e-01 +8.05086136e-01 -8.80526826e-02 -1.17456639e+00 +4.39898185e-02 +1.48744255e-01 -3.44660729e-01 +2.58093655e-01 +6.14758492e-01 -1.06671667e+00 +1.76585302e-01 +1.23139894e+00 -8.00572187e-02 +2.93785900e-01 +6.61450624e-02 -8.84474039e-01 +1.36308391e-02 -2.32587457e-01 -1.05310135e-01 -8.11801851e-02 +3.07856262e-01 +7.85089910e-01 +3.00433338e-01 -3.70810866e-01 -9.00585234e-01 -1.19368203e-01 -7.03342199e-01 +5.55763483e-01 -6.82472467e-01 +3.14909846e-01 -1.19423620e-01 +7.00485110e-01 -1.39239043e-01 +3.66996706e-01 -5.58959126e-01 +3.16958874e-01 -1.91835493e-01 -1.46541208e-01 -9.38019305e-02 +2.69727975e-01 +6.23637699e-02 -5.33488691e-01 -1.12303412e+00 +5.99403501e-01 +4.47919279e-01 +4.99909401e-01 -4.04559135e-01 +2.05575776e+00 -4.97483015e-01 +3.15212905e-01 +1.14942193e+00 +2.21630931e-01 +5.15208900e-01 -1.38542891e-01 -1.98200732e-01 +1.34859130e-01 +3.46216500e-01 +1.92591667e-01 +3.15035254e-01 +3.86021346e-01 +1.19508661e-01 -1.79471388e-01 -1.21728234e-01 +1.96202591e-01 -3.61519866e-02 +8.10333014e-01 -2.68649936e-01 -4.88739192e-01 +3.21109474e-01 +3.21791887e-01 +1.53506815e+00 +1.10403977e-01 -6.76043510e-01 -6.35133088e-01 +1.63723938e-02 -2.28808093e+00 -8.34936917e-01 -4.88828242e-01 +1.38935968e-01 -4.89130080e-01 +1.18887074e-01 -6.54450059e-01 -2.96892792e-01 +8.22441727e-02 +8.88694584e-01 -7.16931760e-01 -4.16956581e-02 +3.03027928e-01 +7.88647458e-02 +7.04217970e-01 -1.23033427e-01 -6.63244903e-01 +5.72516143e-01 +7.54571140e-01 +5.63428044e-01 +3.53322364e-02 +2.80080467e-01 +5.06288826e-01 -2.07765624e-01 -8.98768604e-01 -1.30566925e-01 +5.60186863e-01 +2.13779092e-01 +8.86513174e-01 -3.40207607e-01 -1.03383482e+00 +3.36322159e-01 -1.04997671e+00 -2.85240978e-01 +1.22320250e-01 -2.42391452e-02 +2.29818732e-01 +1.17140673e-01 +4.32692379e-01 -9.12972838e-02 +3.95827919e-01 +9.56804529e-02 +2.44321600e-01 -4.80326176e-01 -1.47396162e-01 -5.86290397e-02 +5.00031292e-01 -4.64960933e-01 +1.67127907e-01 -6.15609705e-01 +1.03529796e-01 +7.42000416e-02 +7.10470736e-01 -3.65181744e-01 -5.25017023e-01 -1.77941427e-01 -8.14510345e-01 -1.27310067e-01 +2.84065008e-01 -1.61702737e-01 -2.20534936e-01 +3.03951949e-01 -6.07634008e-01 +4.00470644e-01 -4.78782594e-01 -5.14234364e-01 -1.98967345e-02 +3.24252993e-01 -5.81537187e-01 +4.14202392e-01 +1.01391695e-01 -2.08759278e-01 +2.71966189e-01 -6.01706147e-01 -3.44849855e-01 +2.92528003e-01 -9.74145770e-01 +3.20162177e-01 -7.32303932e-02 -1.02571279e-01 -1.22719491e+00 -1.79222494e-01 +2.46166855e-01 +5.63374758e-01 +5.58300734e-01 -2.44001627e-01 +4.50605750e-01 +2.47434109e-01 +1.45654872e-01 -2.23115548e-01 -9.80164886e-01 +3.38279516e-01 +2.91803211e-01 -3.71458501e-01 +2.71027654e-01 -5.16745210e-01 +5.86832166e-01 -4.45628792e-01 +7.55094826e-01 +7.31986165e-01 -1.18430160e-01 -5.74730635e-01 -1.16591357e-01 -2.65569210e-01 -1.43327102e-01 +2.63819486e-01 -1.36413708e-01 -1.31527245e-01 -7.84122124e-02 -7.98307538e-01 +2.10341543e-01 -3.25811982e-01 +1.04507625e+00 -1.97208463e-03 +1.37457639e-01 +5.28644621e-01 +8.27229917e-01 -6.47427201e-01 -6.30098343e-01 -2.39389032e-01 -1.14654875e+00 -8.68237540e-02 -7.57510245e-01 +6.38223290e-02 -1.35722801e-01 +1.29469996e-02 +6.45030066e-02 +8.00496280e-01 -1.14483826e-01 +2.45338708e-01 +1.24766819e-01 -9.65201482e-02 +4.19531703e-01 +1.02623844e+00 +7.18300879e-01 +1.84272423e-01 -3.69259387e-01 +2.94758677e-01 -4.10307020e-01 -1.92559987e-01 -6.67960048e-01 -3.61371934e-01 -1.09049642e+00 -4.03063856e-02 -2.30897874e-01 -5.98779082e-01 -2.99633950e-01 +3.11938614e-01 -2.84976542e-01 -1.01774387e-01 -2.50355333e-01 -2.87503779e-01 -4.02355492e-02 +4.65976745e-01 -2.89561689e-01 -1.41561955e-01 -1.09609902e-01 -4.07011947e-03 -1.10045068e-01 -8.83895695e-01 -2.73768127e-01 +4.22026999e-02 +1.32004485e-01 -8.52755308e-01 -1.22533798e-01 -6.14771008e-01 -9.14284736e-02 -3.94340545e-01 -7.24176943e-01 -8.33964527e-01 +1.29581451e-01 +4.95446503e-01 +1.84634775e-01 -3.50200117e-01 -9.64443803e-01 -2.84230569e-03 -7.54637793e-02 -6.54098153e-01 -4.41238582e-02 -2.80755788e-01 +4.52690721e-01 +3.93512696e-01 -1.46556526e-01 +3.36681664e-01 +2.24344894e-01 +1.11026675e-01 -3.49656865e-02 +7.72386730e-01 -5.87967813e-01 +2.10417539e-01 -1.46469489e-01 -2.56511599e-01 -2.20780611e-01 +1.62650049e-01 +4.69323367e-01 -3.44346523e-01 -2.03022748e-01 +4.38406259e-01 -1.71603262e-01 -1.75018936e-01 -2.98465490e-01 +1.72039524e-01 +1.48185370e-02 +2.68780559e-01 -5.09932697e-01 -1.03455043e+00 -6.79476142e-01 +3.29729944e-01 +3.86820495e-01 -7.48560309e-01 -2.81752907e-02 +4.99163121e-01 +5.82186997e-01 +1.33551303e-02 -7.01121926e-01 +1.70543984e-01 -6.28963053e-01 -6.58072770e-01 -2.13918790e-01 -5.52595615e-01 +6.77843332e-01 -3.19364637e-01 -5.87994345e-02 -5.29538617e-02 -1.26938140e+00 -3.22446495e-01 +3.14791411e-01 +2.72484511e-01 -7.35099435e-01 -2.63950825e-01 +5.92928588e-01 -5.69256186e-01 -2.04658702e-01 -9.57653224e-01 +3.91322851e-01 -4.52494174e-01 +9.58760753e-02 +2.95742661e-01 +4.87160236e-02 -7.11306214e-01 -2.03915939e-01 -7.07570851e-01 +4.37778980e-01 +1.12065986e-01 -2.33957961e-01 -9.18305516e-02 -1.67628080e-01 +6.78289309e-02 +2.67559737e-01 -5.26611060e-02 +5.39377891e-02 +3.74587417e-01 -3.37154157e-02 +1.64473072e-01 -5.78974843e-01 -4.14762348e-01 +1.77172258e-01 -5.23750745e-02 +4.27173823e-02 +4.66460466e-01 +2.77019769e-01 -2.40029186e-01 +2.37382129e-01 +1.23250924e-01 -1.54274821e-01 +1.05718456e-01 +1.09007752e+00 +2.96925247e-01 +1.36202753e-01 +1.82278603e-01 +6.71182573e-01 +9.23396498e-02 +6.05721831e-01 +1.24120271e+00 +7.32490540e-01 -1.06214441e-01 +6.78589761e-01 +6.27087876e-02 +4.39677775e-01 +5.40202081e-01 -4.85815078e-01 -4.56098258e-01 +4.26977456e-01 +5.04085004e-01 -4.31124806e-01 -2.33206078e-02 -9.90307108e-02 +5.57237148e-01 +5.73661208e-01 -1.80519242e-02 +3.44359189e-01 +9.06518877e-01 -3.68862115e-02 +4.83811468e-01 -4.12880898e-01 +1.10183693e-01 +5.68051398e-01 +4.64454293e-01 +9.40318555e-02 -3.67146730e-01 -7.21301377e-01 -3.67692560e-01 +2.84370750e-01 +5.27121246e-01 +5.77868938e-01 +5.60537159e-01 -3.13976347e-01 -4.52823415e-02 -2.09905878e-01 -2.64686674e-01 -7.01355159e-01 -3.89269710e-01 -5.72694421e-01 +1.61691993e-01 +2.01382756e-01 -6.60164177e-01 +6.06125355e-01 -5.78747749e-01 -9.06087935e-01 -4.20171976e-01 -8.10882226e-02 -2.46789604e-01 -1.83433056e-01 +2.78552502e-01 -9.70605910e-01 -8.42386365e-01 +1.29542559e-01 +1.73029765e-01 +9.40019488e-02 +6.73831627e-02 +9.30978879e-02 +1.59643602e+00 +3.18455398e-01 +5.93715906e-01 +6.68775141e-01 -2.83099025e-01 -3.69666308e-01 -6.29785120e-01 +2.10475445e-01 -1.60448134e-01 -7.03393400e-01 +9.48223695e-02 +4.90536064e-01 -7.62665033e-01 +9.36652839e-01 +4.39114422e-01 +3.93469661e-01 -2.22760245e-01 -7.89190590e-01 -6.49773180e-01 +7.24156201e-01 -1.23826993e+00 +3.96755725e-01 +1.54802322e-01 +5.73000833e-02 +7.69156367e-02 +7.92051077e-01 -7.73712158e-01 +6.30586147e-02 -5.12470379e-02 +8.07834148e-01 +6.29697368e-02 +2.13936388e-01 +3.39360476e-01 -7.41116628e-02 -3.65722001e-01 -5.25960743e-01 +5.84197998e-01 +2.81343102e-01 +7.95258462e-01 -5.16672492e-01 -5.19438267e-01 +8.69790614e-01 -1.71500787e-01 -2.63225853e-01 -1.45863798e-02 -2.76693478e-02 -1.83005668e-02 +3.38785231e-01 -3.26907188e-01 -3.06091487e-01 -4.30509210e-01 +3.46690491e-02 +4.88668203e-01 -6.10287189e-01 -1.79001421e-01 -8.39499950e-01 +6.29614115e-01 -1.27532482e-01 +1.59136966e-01 +2.45454863e-01 +8.54498684e-01 -3.67203087e-01 +8.35305691e-01 +4.34539080e-01 -2.25461107e-02 +4.83860940e-01 +8.04062068e-01 -2.18060181e-01 +4.71933931e-01 -3.74604583e-01 +1.27670303e-01 -6.11852519e-02 -6.44337416e-01 +6.01334333e-01 +2.99804538e-01 -3.49458873e-01 +5.13466656e-01 -5.35317212e-02 +6.57055259e-01 +2.08922356e-01 +7.70001292e-01 -2.64527023e-01 +5.27132571e-01 +1.71516359e-01 +2.15135247e-01 +4.88080591e-01 +2.17309017e-02 +4.99470770e-01 +6.80907011e-01 +5.11562638e-02 -1.61451340e-01 +2.18314677e-01 +3.08008373e-01 +3.22538465e-01 +6.94042504e-01 -6.66648149e-01 +1.34442397e-03 -1.87163457e-01 +2.09051371e-02 +1.91471919e-01 -2.32265294e-01 -1.22169411e+00 +7.76530683e-01 +1.30427897e-01 -2.26613581e-01 -4.79188226e-02 +7.56851807e-02 +1.59411967e-01 -8.19078460e-02 +3.44593227e-01 -3.04002464e-01 +7.69806981e-01 +5.47232866e-01 +5.17075062e-02 -1.83750525e-01 +3.54184359e-02 -2.87306398e-01 -1.32208362e-01 +1.36973754e-01 +2.40478843e-01 +4.82995003e-01 -4.84069437e-01 -1.51536390e-01 -7.10079074e-02 -2.63468176e-01 -1.25795454e-01 -5.45717061e-01 -9.22984719e-01 -4.59603012e-01 -7.07514346e-01 -6.36543691e-01 +5.65314246e-03 +6.20077550e-02 -7.00053930e-01 +1.88064605e-01 -2.65268892e-01 -9.03250352e-02 +3.34455192e-01 -5.02627671e-01 +3.39842916e-01 +8.30608666e-01 +3.43571723e-01 -1.20388523e-01 +3.51054758e-01 +4.31770146e-01 -3.15493375e-01 -5.99577241e-02 -5.06777048e-01 +2.03431055e-01 -2.81097203e-01 -4.10025030e-01 +1.83641285e-01 -1.90186217e-01 -2.66085863e-01 +1.58426896e-01 -2.49185804e-02 -3.69821399e-01 +2.91454136e-01 +7.44524121e-01 -1.04954064e-01 +1.34354204e-01 -4.61199373e-01 -4.54206504e-02 +5.08241832e-01 -1.48511991e-01 +4.11142372e-02 -3.70181859e-01 -6.01369500e-01 +1.84002548e-01 +3.08007717e-01 -8.56180042e-02 +1.45587519e-01 -5.25640905e-01 +1.81814104e-01 +8.51361990e-01 -2.15620473e-02 +1.15531993e+00 -1.09787357e+00 -9.25264895e-01 -4.41043258e-01 -5.09762645e-01 +2.10506126e-01 -2.78200418e-01 -2.64910012e-01 +5.57568729e-01 -5.98061621e-01 +1.54689606e-02 -3.83078367e-01 +1.36332676e-01 -2.41468161e-01 +8.79459754e-02 +4.70758736e-01 -7.09606186e-02 +3.52973133e-01 -3.30534801e-02 +2.69769877e-02 -8.27636540e-01 -2.68167913e-01 +1.01666324e-01 +6.38923198e-02 +1.10938825e-01 -8.02121639e-01 +4.59181786e-01 -2.91848257e-02 -3.85475457e-01 +2.75091141e-01 +3.16103190e-01 -1.48485541e+00 +4.75988716e-01 -5.43393791e-01 -1.88478917e-01 +4.17162806e-01 -7.73053408e-01 +5.28467894e-01 +4.66206253e-01 -2.14216754e-01 -1.27888691e+00 +1.83060750e-01 -4.60750610e-01 -1.36322081e-02 +7.51763359e-02 -6.69163108e-01 -1.17082691e+00 -4.51500088e-01 +1.62233993e-01 -6.26423359e-01 +9.34571266e-01 +1.82302758e-01 +1.70210317e-01 +4.70271647e-01 -2.28740811e-01 -2.18444727e-02 -3.30709189e-01 +7.48425275e-02 +6.81475759e-01 -7.93843925e-01 +1.21860027e-01 +1.45655096e+00 +4.88405168e-01 -6.80107057e-01 +8.50172877e-01 -2.30729625e-01 +2.22590014e-01 +1.06724870e+00 +8.41341615e-01 -6.22285485e-01 -3.61622810e-01 +2.90950149e-01 -8.82898808e-01 -1.98010001e-02 +2.80104339e-01 -2.22693551e-02 +7.69142747e-01 -7.02100471e-02 -2.34949812e-01 -1.05072055e-02 -6.70663714e-01 -2.93795586e-01 +6.77615762e-01 -2.76309010e-02 +5.77111125e-01 -2.73453414e-01 +3.86289768e-02 +1.37012690e-01 -6.97086453e-01 +4.99159485e-01 +3.19214135e-01 -1.21561337e+00 +1.75312102e-01 +2.92525947e-01 +5.99765539e-01 -1.01923473e-01 -5.69447875e-01 +2.92957008e-01 +7.16804385e-01 -1.76184759e-01 +2.56570667e-01 -9.11071450e-02 +8.37149099e-03 -3.41305345e-01 -6.01540625e-01 +5.87178349e-01 +1.22907841e+00 -5.49784005e-01 +2.44205683e-01 -2.69610494e-01 -1.13967180e+00 -8.23424160e-01 -6.20801866e-01 +1.88182041e-01 +1.31511008e-02 +9.37357917e-02 +2.75125891e-01 +5.01959980e-01 -1.37213022e-01 +2.01464429e-01 -3.56632411e-01 -8.81859779e-01 +7.71725476e-02 -1.65682644e-01 -3.47337693e-01 +5.55490077e-01 +1.81614593e-01 +5.57241082e-01 +4.91264135e-01 -1.39945090e-01 +3.83094639e-01 +4.56429690e-01 +3.04579027e-02 +9.81806993e-01 +1.22577831e-01 +4.20941740e-01 -5.97298324e-01 -2.91998506e-01 -7.11431429e-02 -1.41230717e-01 -2.64485870e-02 +8.85353014e-02 -2.76540428e-01 -2.98830718e-01 -3.41976017e-01 +1.02074165e-02 +4.71109509e-01 -3.94845456e-01 +2.25060314e-01 -2.21052259e-01 +5.93495071e-01 -6.23556972e-01 -4.32797372e-01 -2.97746480e-01 -3.11542690e-01 +3.34298331e-03 -3.68205070e-01 -1.75782412e-01 -7.87173340e-04 -4.73022193e-01 -2.57184118e-01 +1.42791033e-01 -1.40889212e-01 +1.62340671e-01 -1.66594481e+00 -4.63634461e-01 +6.04008771e-02 -5.51653169e-02 +2.68063456e-01 +2.18465894e-01 -1.61137730e-01 -7.36515999e-01 +1.23785481e-01 -1.13762572e-01 +3.11296284e-01 +8.44978034e-01 -2.84864366e-01 -6.65001988e-01 -4.33301628e-02 -1.28551498e-01 +1.09745510e-01 -4.93076950e-01 +1.41497567e-01 -5.38673580e-01 +1.92391485e-01 +3.14707339e-01 -5.12905657e-01 -6.93735003e-01 -5.00332952e-01 +8.71065781e-02 +2.53620386e-01 -2.35393673e-01 -1.26020610e-01 -1.23970628e-01 +2.14291632e-01 +6.86764419e-01 -4.78008896e-01 +3.40763807e-01 +5.86569346e-02 +4.76505160e-01 +2.97029745e-02 -2.04002872e-01 -2.45653734e-01 -7.07074776e-02 -1.54144526e-01 -4.87232506e-01 +4.12545681e-01 -1.60499543e-01 -5.16908407e-01 +3.06120455e-01 +7.80689299e-01 +9.72053349e-01 -4.33484226e-01 -8.97284150e-01 +3.48188847e-01 +2.04514250e-01 +6.49039745e-02 +1.03897937e-01 +5.96938968e-01 -4.24034417e-01 +1.42355010e-01 -1.24629676e-01 +3.05747241e-01 -8.86323750e-01 -7.44929910e-01 -2.71959215e-01 -1.18832195e+00 -1.03984618e+00 -2.49642178e-01 -7.01609254e-01 +6.71537817e-01 -3.73553723e-01 +8.02129507e-01 -4.35385376e-01 -1.88957810e-01 -4.78379160e-01 +4.17645425e-02 +4.73200604e-02 -3.62665921e-01 -3.96656692e-01 +2.31826961e-01 +7.24052936e-02 -3.03890705e-01 +3.91479552e-01 -8.98330212e-01 -4.48126078e-01 -1.92208767e-01 +7.85022855e-01 -6.77606091e-02 +3.79228294e-02 +3.11610818e-01 -1.91378325e-01 +2.62634410e-03 -7.81106055e-02 +2.01011628e-01 +2.65516758e-01 -5.45942001e-02 +2.74225712e-01 -8.98814127e-02 -8.40896189e-01 +1.92382410e-01 +1.46923780e-01 -2.19539508e-01 +7.51678646e-02 +6.42643154e-01 -3.82466689e-02 -2.40464717e-01 +3.30214500e-02 +4.51955944e-01 +9.99899805e-02 +1.26821548e-01 +1.56866923e-01 -7.95835108e-02 +6.41499534e-02 -4.49000806e-01 -7.23598599e-01 -5.50343003e-03 +1.86967656e-01 -6.19411409e-01 -6.33190334e-01 +1.02018967e-01 -3.29334527e-01 -2.57965297e-01 +6.90372527e-01 +1.94576532e-01 +2.84817427e-01 -2.21317232e-01 -6.46279275e-01 -3.43360126e-01 +3.77906621e-01 +3.81846994e-01 -6.44551098e-01 -3.04062694e-01 +2.49742955e-01 +3.96578401e-01 -5.52700050e-02 +2.26213396e-01 +4.96118665e-01 +6.75050437e-01 -8.06550309e-02 -1.89842969e-01 +2.23664820e-01 +1.16389632e-01 +5.50297737e-01 -3.62173393e-02 +4.95539337e-01 -2.84778118e-01 -7.74614513e-01 +5.34983635e-01 -1.68743074e-01 -4.04586166e-01 -1.47816384e+00 +1.60423815e-01 -1.99300095e-01 -2.65682995e-01 +1.35018498e-01 +5.68531930e-01 -1.36621341e-01 -2.32033581e-01 -9.51273084e-01 +3.72230798e-01 -1.84646323e-01 +1.64668992e-01 -6.53768420e-01 -4.67978597e-01 -1.16547242e-01 -2.91765898e-01 +1.27774847e+00 +7.89681017e-01 +2.19597399e-01 -5.74901521e-01 -3.03064257e-01 -7.67833889e-01 -4.79929782e-02 +6.50299340e-02 +4.89130706e-01 -2.36846641e-01 -1.00856578e+00 -8.38730156e-01 -7.24531651e-01 -4.25162047e-01 -8.83653462e-01 +3.12896878e-01 +4.41084690e-02 +2.93435097e-01 +8.25867891e-01 +2.36529231e-01 +8.28370601e-02 +1.30410492e+00 -1.24156451e+00 -1.39509928e+00 -1.04969454e+00 -6.39270902e-01 +8.44469905e-01 -1.72825828e-01 -9.09454286e-01 +1.03645694e+00 -4.23909545e-01 +1.09750398e-01 +4.78929341e-01 +8.56713712e-01 +9.84035254e-01 +2.66272575e-01 +9.37723935e-01 -6.73106313e-01 -7.74866343e-01 -1.51587263e-01 +5.05173989e-02 -2.22764149e-01 -4.87805068e-01 +1.13700338e-01 +1.37502447e-01 -4.14284289e-01 -1.52818665e-01 -1.57917574e-01 -3.61515880e-02 +3.22666727e-02 -1.05959482e-01 +1.16746470e-01 +2.96300352e-01 +3.12101673e-02 -1.21415727e-01 +1.85625076e-01 -8.51345658e-02 +4.24527228e-01 -5.51185310e-01 +4.38150346e-01 -7.35529125e-01 +3.80890459e-01 +3.82336617e-01 -3.12946707e-01 +1.85511127e-01 -2.42162466e-01 +4.30859514e-02 -2.04119712e-01 +3.03069919e-01 -1.03670478e+00 +4.59916174e-01 +3.11248321e-02 -5.43712713e-02 +2.68063039e-01 -8.15209031e-01 -6.98020041e-01 -1.09699404e+00 +1.74575776e-01 -9.20545682e-03 +3.78288329e-01 +2.73565650e-01 -1.95449784e-01 -1.88980341e-01 -3.23837288e-02 -1.05417860e+00 -3.77236903e-02 -1.27262101e-01 -6.68651164e-01 -9.93782654e-02 -3.41575652e-01 +1.12947971e-01 -4.18926686e-01 -2.22014800e-01 -1.19071499e-01 -3.69659305e-01 -7.93924630e-01 -2.62507111e-01 -1.02487616e-01 +3.82421166e-02 +2.97314435e-01 +1.15016237e-01 -3.46483961e-02 +1.85712233e-01 +1.88660752e-02 -3.51583183e-01 +8.42691511e-02 -4.02728081e-01 +9.09005031e-02 -4.08481628e-01 -1.93064940e+00 -1.02253944e-01 +2.19075810e-02 +5.87378442e-01 +4.42411900e-01 +7.20738769e-01 +3.83996069e-01 +2.47197166e-01 -8.17430377e-01 -5.13680279e-01 -1.59464031e-01 -1.40153751e-01 -1.84107319e-01 +1.01998285e-03 +6.30647182e-01 -2.27428660e-01 -4.37313050e-01 +8.57114643e-02 -3.12829971e-01 +4.73535269e-01 +8.88282478e-01 -5.14878929e-01 +1.09201722e-01 -9.92170908e-03 -2.29958996e-01 +3.30002755e-02 +2.48308763e-01 -4.76337284e-01 -4.98916268e-01 +6.28223568e-02 -3.02095145e-01 -3.17081839e-01 +1.60318300e-01 -1.56664744e-01 -5.50812244e-01 -1.02416307e-01 +6.94861948e-01 +2.47165665e-01 -1.97378755e-01 -7.55334616e-01 +3.91488135e-01 -2.80043900e-01 +4.70249027e-01 +4.84250307e-01 +1.30376488e-01 +2.81564325e-01 -2.20947623e-01 -2.22268879e-01 -1.16251104e-01 -1.99240759e-01 +3.63583893e-01 +2.37940624e-01 -2.29212940e-02 -5.01713872e-01 +2.71287173e-01 -2.84689456e-01 -2.35952124e-01 +4.71461177e-01 -6.36861801e-01 -1.06611960e-01 +2.17549190e-01 -1.33229166e-01 +2.96313316e-01 -1.00405477e-02 -6.03340507e-01 -7.16148734e-01 -1.27757370e-01 +1.74262255e-04 +5.95330238e-01 +6.90208316e-01 -7.64459446e-02 -7.78075516e-01 -4.89133388e-01 -8.63255143e-01 -4.76466268e-01 +5.90397835e-01 -7.06418335e-01 -1.67077869e-01 +8.49092722e-01 -7.91449308e-01 -9.23517346e-01 -1.09733298e-01 -4.38265115e-01 -3.86474937e-01 +2.69020200e-01 -4.02098238e-01 +9.83898789e-02 -1.10781938e-01 -1.55279145e-01 -4.82092559e-01 -9.13953841e-01 +5.29265046e-01 -1.05496019e-01 -1.05080903e-01 +3.71758714e-02 +6.09776914e-01 +2.33620122e-01 -4.23336595e-01 +5.87627709e-01 +1.63604230e-01 -2.75034964e-01 +5.16350150e-01 +4.60571915e-01 +6.94443956e-02 +5.78505516e-01 -4.74032193e-01 -4.86736417e-01 +9.84950781e-01 +3.04312140e-01 -8.35865617e-01 -7.60520175e-02 +4.38570142e-01 +1.59480914e-01 +2.30652720e-01 +5.86581230e-01 -3.32497954e-01 +8.35352600e-01 -6.86259747e-01 +4.11064923e-01 +5.73051512e-01 -1.90575421e-01 +3.13444167e-01 +5.27647138e-01 +7.85558075e-02 -8.39549601e-02 +1.36916757e-01 +4.38495785e-01 +3.93217290e-03 -1.71462387e-01 -1.01795278e-01 +6.63736701e-01 -8.71511735e-03 -1.15198694e-01 +4.02584404e-01 -2.75484800e-01 -1.67495981e-01 -3.87619466e-01 -4.39507276e-01 -3.19440484e-01 +2.83172846e-01 -3.74927819e-01 +7.02334106e-01 -4.73047435e-01 +6.58572972e-01 -3.61132734e-02 -8.69721081e-03 +1.82965383e-01 +2.18920782e-01 +6.52660608e-01 +3.37514728e-01 -2.04815418e-01 +2.94289589e-01 +1.92801192e-01 +2.57028788e-01 -3.19233358e-01 +1.02823150e+00 -1.96532175e-01 +2.72260487e-01 +6.54469192e-01 +2.71252394e-01 -8.72789770e-02 -6.71924591e-01 +6.34372652e-01 -1.43713772e-01 -2.46247947e-01 -1.08643182e-01 +2.08241940e-01 +1.01568067e+00 -9.12997246e-01 -1.27663448e-01 +1.15442002e+00 +2.67652392e-01 +6.88474000e-01 -1.40186334e+00 +5.00199318e-01 +1.50689855e-01 +6.17058277e-02 +8.13978434e-01 +2.67264158e-01 -3.86973739e-01 +2.77782261e-01 +3.78620237e-01 -2.12417454e-01 +2.49023423e-01 -4.05974984e-01 +3.17966938e-01 +3.31106067e-01 +1.92822814e-01 -5.03619730e-01 +5.31978160e-02 +3.87412347e-02 +5.07639170e-01 +3.62615474e-02 -6.43194258e-01 +1.46223933e-01 -4.83761936e-01 +5.39785363e-02 +7.75648514e-03 +9.59471688e-02 +3.26495856e-01 +4.17071223e-01 -2.46592566e-01 +6.92656860e-02 -5.02413750e-01 -3.43532681e-01 +4.84520376e-01 -6.18825674e-01 +4.99277323e-01 +2.10330680e-01 -2.85456091e-01 +6.86723366e-02 -1.25567758e+00 -1.44038245e-01 +1.86940253e-01 +2.93543041e-01 -7.88209319e-01 -1.09458849e-01 +6.23514235e-01 +2.46313438e-01 -6.89937353e-01 +1.71617880e-01 +7.02969551e-01 -3.92479181e-01 -5.81382751e-01 -2.82258540e-01 +5.26111603e-01 -4.34459090e-01 -2.59180069e-01 +4.52067196e-01 -4.90157127e-01 -7.18603313e-01 +1.92841604e-01 -3.61497104e-01 +3.38387579e-01 +7.11578429e-01 -9.75242723e-03 -1.09932542e+00 +5.58681548e-01 +6.89961314e-02 -3.18424135e-01 -8.08847785e-01 +2.50211179e-01 +4.29196358e-01 -6.97308958e-01 -5.99987432e-02 +5.39708793e-01 -4.52376097e-01 -8.59182253e-02 -4.32385892e-01 -2.84364164e-01 -5.56084037e-01 -3.48242640e-01 +2.65633821e-01 -1.53331071e-01 -1.74416974e-01 -4.84014928e-01 -1.45999223e-01 -7.13765979e-01 -2.86598802e-01 -3.97920489e-01 -3.48448426e-01 -1.96116969e-01 -4.31201965e-01 -4.56314921e-01 +4.23176497e-01 +2.13355333e-01 -2.70109661e-02 -7.65817165e-01 +7.81143308e-01 -8.62812698e-01 +4.20875043e-01 +4.04219151e-01 -1.73191000e-02 -4.65698391e-02 +3.10612619e-01 +1.07494724e+00 +6.92482650e-01 +1.37454852e-01 -3.67125273e-01 -3.73985231e-01 -6.58966839e-01 -2.51467675e-01 +9.17150140e-01 +4.96298909e-01 -8.02910149e-01 -7.78567612e-01 -9.46143746e-01 -8.65975380e-01 +2.83156633e-01 -1.01001716e+00 +1.29865336e+00 +6.69344127e-01 +4.88103837e-01 +6.21281564e-01 +4.06575322e-01 -5.39284885e-01 +8.78707826e-01 -1.34127760e+00 -3.60863864e-01 -5.06443679e-01 -1.24329436e+00 +7.47348487e-01 -3.60646725e-01 -1.29910731e+00 +7.72760034e-01 -1.19994140e+00 +5.10721028e-01 -5.84299006e-02 +6.72464192e-01 -6.15340918e-02 +6.98611438e-01 +2.31193766e-01 -7.77022004e-01 -6.95107162e-01 -1.95569262e-01 -2.44121149e-01 -4.25265580e-02 +1.25889868e-01 +4.27079588e-01 +2.59389192e-01 -1.35618448e+00 -2.96226978e-01 +4.43474859e-01 -3.93199354e-01 +5.26540680e-03 -8.53913963e-01 -6.96777850e-02 +3.67387176e-01 +1.23434567e+00 +8.54865238e-02 +7.68056652e-03 +6.94235191e-02 +3.99549365e-01 -5.77613935e-02 +5.97524166e-01 -1.11507326e-01 +5.94723463e-01 +5.46458885e-02 -2.95310020e-01 -1.68945901e-02 -4.79518652e-01 +4.44971770e-01 -1.57927528e-01 +1.40717342e-01 +9.79912877e-02 +1.00205958e+00 -3.89732778e-01 -5.29860973e-01 +1.19325094e-01 +9.96634588e-02 -1.50227230e-02 -4.83220100e-01 +2.94679046e-01 +2.96994388e-01 -5.28863072e-01 +4.92915243e-01 +3.41433108e-01 -6.23772681e-01 -2.43404090e-01 -5.69563746e-01 +2.18374327e-01 -1.60163298e-01 +1.12447970e-01 -4.88212377e-01 -1.22533612e-01 +1.55459315e-01 -2.42683902e-01 -4.95845258e-01 +4.21873152e-01 +1.17102969e+00 -8.85970294e-01 -7.53803253e-01 -6.47129714e-01 +4.45661873e-01 +3.91826183e-02 -4.19107616e-01 -1.07249254e-02 +2.99102347e-02 -7.51430213e-01 -1.04272991e-01 +6.95040703e-01 +7.72755623e-01 +1.18876278e-01 -7.77066290e-01 +4.12429512e-01 +1.73562869e-01 -6.27627850e-01 +3.02276880e-01 +1.90057397e-01 -1.95882648e-01 +7.65033185e-01 +6.77283257e-02 +1.18362166e-01 -1.53715625e-01 -3.20462018e-01 -3.09017859e-02 +7.52743483e-02 -8.82553637e-01 -1.38740465e-01 -2.17854187e-01 -1.20839202e+00 +1.11019468e+00 +2.73794204e-01 +7.18657067e-03 +8.34602937e-02 +8.46296608e-01 -1.90088972e-01 -1.33167312e-01 +1.49156451e-01 +3.69111300e-01 +1.57545611e-01 -2.98829526e-01 +3.02660912e-01 +7.12145448e-01 +3.79499048e-02 -5.00328422e-01 -7.91570365e-01 -1.52775273e-01 +9.74683881e-01 -1.04551971e+00 -1.15665185e+00 -1.78855166e-01 -1.05376899e+00 -9.90141153e-01 +2.89285868e-01 -1.07457519e+00 -1.17458260e+00 -3.73143703e-01 -8.67618993e-02 +9.17923689e-01 +6.48464203e-01 -4.84980792e-01 +8.60076398e-02 -6.34125650e-01 -1.06810069e+00 -1.11511469e+00 -1.18332952e-01 -1.74607062e+00 -2.58501768e-01 +6.71442449e-01 +3.82652342e-01 +3.17237765e-01 -3.22583824e-01 -1.22125678e-01 +5.08521318e-01 +1.02798641e-01 -6.14884682e-02 -3.66353989e-02 -1.14619464e-01 -1.57063216e-01 -5.96189201e-02 -1.06236391e-01 -2.86774188e-01 -9.27865148e-01 +5.59112489e-01 -5.97597547e-02 +2.37229690e-02 +2.73415536e-01 +4.08999026e-01 -1.98957682e-01 +6.60887957e-01 -3.49004298e-01 +6.42044902e-01 +4.44467843e-01 -1.29312411e-01 +3.17271166e-02 -1.35617092e-01 +7.32809126e-01 -4.24671948e-01 +2.41620466e-01 +2.13307440e-01 -2.39634827e-01 +2.00958341e-01 -7.26156175e-01 -2.91027158e-01 -1.22818977e-01 -3.68873835e-01 +6.94081247e-01 -6.60778463e-01 -1.56536251e-01 -7.01321840e-01 -5.33356667e-01 -1.12642384e+00 -4.31690335e-01 +6.27722859e-01 -7.62815237e-01 -5.29626608e-01 -2.29436353e-01 +3.49332660e-01 -8.02463830e-01 -2.56495357e-01 -2.77556200e-02 -8.99329424e-01 +5.55920541e-01 -3.30783665e-01 +5.47217906e-01 -5.13115883e-01 -9.42830265e-01 +4.06104296e-01 -6.92685544e-01 -1.05458248e+00 +4.67660129e-01 +2.09110342e-02 -3.67518902e-01 -6.29245996e-01 -5.27304590e-01 -3.55055332e-01 -1.50295824e-01 -2.16905922e-01 +9.36390400e-01 +1.16238332e+00 -6.09225571e-01 -4.29398805e-01 +6.26043677e-02 +1.49690464e-01 -5.12376308e-01 +1.65621176e-01 +3.83444987e-02 -8.53740722e-02 -1.00380743e+00 -8.58677328e-02 -4.40575421e-01 +6.70109332e-01 -4.46166098e-01 -3.15687686e-01 -7.93376088e-01 +8.04618374e-02 +3.68186325e-01 +4.53052700e-01 +2.94354826e-01 -1.28823137e+00 -2.45991260e-01 -7.05941319e-01 +1.63023639e+00 +8.66380394e-01 +1.32413268e-01 -3.62980723e-01 +6.27405941e-02 +3.23730916e-01 -3.01727772e-01 +2.21123278e-01 +5.30335903e-01 +1.31076622e+00 +6.74841702e-01 -8.08745623e-01 -1.23019725e-01 +1.29694954e-01 -2.93199897e-01 -8.13625395e-01 -6.55859530e-01 +5.56296948e-03 -1.22154856e+00 -7.85671413e-01 -2.33693510e-01 -1.12918019e+00 -3.36378403e-02 -5.65989017e-01 +9.27067250e-02 +3.16119432e-01 -8.02857935e-01 +1.60299852e-01 -7.42490351e-01 -1.83053881e-01 -1.01738170e-01 +7.48444676e-01 -8.68211389e-01 -7.98433945e-02 -2.29217023e-01 -5.81427395e-01 +4.66240406e-01 -4.91812557e-01 -3.61240178e-01 +1.60846934e-01 +1.58243522e-01 -4.10007864e-01 +8.77670050e-01 -4.01684523e-01 +3.81728530e-01 -2.41630569e-01 +8.22549239e-02 +3.00801814e-01 -1.75425380e-01 -1.24065556e-01 -6.29838467e-01 +7.70156179e-03 +2.66073644e-01 -1.82127643e+00 -1.25458658e-01 -9.08853039e-02 +1.36703146e+00 +7.17681646e-01 -3.56977999e-01 -1.59206301e-01 -5.32549381e-01 +1.90307006e-01 +1.08127749e+00 -2.98762202e-01 -1.31740242e-01 -1.62286043e-01 -6.02251709e-01 -3.84787694e-02 +2.59981453e-02 +9.57184732e-02 +3.43956128e-02 +4.21578795e-01 -1.72513723e-01 +1.75263047e-01 -4.08509463e-01 +8.77985835e-01 +9.60114837e-01 +1.03571508e-02 +3.80834043e-01 +6.78397063e-03 +4.88584340e-01 -5.88531196e-01 -3.80316585e-01 +9.43599045e-01 -2.52524137e-01 +1.65022701e-01 -4.09020744e-02 +1.24403203e+00 +4.75541264e-01 -4.18145329e-01 -2.77225524e-02 -1.10178679e-01 -2.02712655e-01 -5.62410116e-01 -4.08319682e-01 -1.58915848e-01 +1.11607410e-01 -1.59391299e-01 +6.44996539e-02 +5.06087959e-01 +1.10990770e-01 +2.75300145e-01 +4.94506955e-02 -4.54802692e-01 +7.10212886e-01 +2.27356199e-02 +3.88373137e-02 -1.61153138e-01 -5.18563092e-01 -7.02672422e-01 +2.11491957e-01 +2.84558088e-01 +2.91775852e-01 +7.58957684e-01 +6.83021545e-01 -8.93696129e-01 -7.32022747e-02 +5.66861153e-01 +2.35431880e-01 +1.31455377e-01 -6.15791261e-01 -3.27354550e-01 -1.36952072e-01 +4.58668530e-01 +4.58788760e-02 +2.27595493e-01 +9.38761234e-01 +4.62232620e-01 -5.42131603e-01 +2.52956569e-01 +9.88202542e-03 -7.36299396e-01 +4.68648314e-01 -5.00228941e-01 +3.96371454e-01 +1.35049975e+00 -8.18988621e-01 -1.57684970e+00 -9.58918631e-01 -2.49299839e-01 +1.03403449e+00 -1.30266023e+00 -3.62757981e-01 +2.70080417e-01 -3.69121790e-01 -8.54361892e-01 -7.94195458e-02 +6.28650963e-01 +1.89403683e-01 -1.89995185e-01 +5.13786077e-01 +9.39273477e-01 -9.97415543e-01 -7.01461971e-01 +3.84567112e-01 -2.22767204e-01 +2.35765129e-01 -1.24659264e+00 +7.21281245e-02 -1.14058200e-02 -2.12353095e-01 -1.19083989e+00 +4.17689294e-01 +1.52414203e-01 +3.23403209e-01 -3.71250100e-02 +6.30062282e-01 -1.36146665e-01 +5.59264243e-01 -1.40679449e-01 -2.06716031e-01 +5.78925133e-01 -1.06332767e+00 -4.74066846e-02 -1.10605299e+00 +6.86435521e-01 +1.29368678e-01 +4.70457494e-01 +5.00879705e-01 -6.53493106e-01 +1.88426524e-01 +5.25744259e-01 -1.09152839e-01 -3.99152458e-01 -4.61709350e-01 -8.32410812e-01 +3.44195915e-03 +6.27742469e-01 -1.17360451e-03 -2.00912625e-01 -3.05603296e-01 -8.69714916e-02 +3.47044975e-01 +7.19538450e-01 +4.93003428e-01 -5.40493071e-01 +5.07795691e-01 +2.30242252e-01 -5.34593649e-02 +1.87522694e-01 -2.25803167e-01 +5.70644438e-01 -8.56456682e-02 -7.88856968e-02 -2.09130123e-02 -3.00950766e-01 +7.28817701e-01 +5.35690561e-02 +1.11623812e+00 -7.57361948e-01 +9.54710245e-01 +2.63941586e-01 -4.73428994e-01 +1.94663748e-01 -2.03599796e-01 +6.63441837e-01 +2.98738390e-01 -6.20991271e-03 +4.02649045e-01 +3.51059109e-01 +3.10912818e-01 +3.22519839e-01 +5.83290040e-01 +8.11031938e-01 -1.51036354e-02 +8.04240108e-02 +2.28604123e-01 -5.79537392e-01 +2.32656583e-01 +3.36412162e-01 -5.63859046e-01 -2.02259824e-01 -1.30913079e-01 +2.92816371e-01 +1.14237368e-01 -4.57341850e-01 -3.98242235e-01 -1.73879474e-01 +2.36456200e-01 +2.08304152e-01 -4.85070020e-01 -4.22012806e-01 -5.61398089e-01 -2.25474343e-01 -7.08240509e-01 -7.84557700e-01 -2.59147435e-01 -4.44699228e-01 +2.22664952e-01 -4.87330943e-01 -3.79868358e-01 -2.87020683e-01 +2.33389243e-01 -1.97246313e-01 -3.55011106e-01 -6.62602708e-02 -2.77434886e-01 -1.69671670e-01 +7.10183859e-01 -1.67375550e-01 +1.18238673e-01 -4.47287001e-02 +2.72224486e-01 +6.76365674e-01 +3.95124368e-02 -1.71832293e-01 +2.41580419e-02 -2.53799539e-02 -5.63799255e-02 +9.18914601e-02 +7.97067285e-01 -9.28559840e-01 -3.74288589e-01 -5.90321183e-01 +3.16150129e-01 +2.87274808e-01 -2.53626347e-01 -5.96955776e-01 +1.31567061e-01 +2.87737668e-01 -2.20519915e-01 -2.09943250e-01 +1.32337773e+00 +2.76514441e-01 +5.30640185e-01 +8.03120658e-02 -2.75797933e-01 -5.40273130e-01 +2.15448868e-02 -4.22284938e-02 -8.47853497e-02 -9.69721749e-02 +3.95848274e-01 +2.83400565e-01 -2.52417356e-01 +5.74872829e-02 +8.03752542e-02 -5.39278328e-01 -1.05942125e-02 +4.39493775e-01 -6.69066012e-01 +4.37184483e-01 -8.31293523e-01 -1.32227212e-01 +2.99850315e-01 +5.11359692e-01 -4.22930688e-01 +4.20108527e-01 -2.31546074e-01 +4.70657676e-01 -8.06599557e-01 -1.49590775e-01 -2.46963024e-01 +7.68097341e-02 +1.62214696e-01 -1.17023870e-01 -3.04588705e-01 -2.09820062e-01 -2.94986039e-01 +6.88181818e-01 -2.73051202e-01 +4.25024420e-01 +1.35802060e-01 -1.55790031e-01 -4.51629668e-01 -2.39752084e-01 -3.57046634e-01 +5.46675503e-01 +6.92656543e-03 +8.36992785e-02 +2.27779165e-01 +4.23768818e-01 -1.74342424e-01 +2.63560832e-01 +5.67699909e-01 -5.35723031e-01 +7.69660100e-02 +8.33792761e-02 +5.98769248e-01 +5.95871568e-01 +6.43966734e-01 -1.12973535e+00 +7.13080227e-01 -6.27092123e-02 +3.55533391e-01 +5.82743764e-01 -8.84494185e-03 +6.58174992e-01 +4.83118594e-01 +6.00534678e-01 +6.54052496e-01 -6.87681854e-01 -4.23719496e-01 +2.36645982e-01 +1.29771143e-01 -6.96815103e-02 +5.05242832e-02 -3.24169725e-01 -1.36645108e-01 -3.05634528e-01 +1.36752516e-01 +1.00562286e+00 -4.50874865e-01 -5.49510956e-01 -3.27328086e-01 -8.73577595e-02 +9.31465983e-01 -1.17038339e-01 -9.84427273e-01 +1.96803093e-01 -4.26609367e-01 -3.53166282e-01 +4.70955819e-01 +2.82936618e-02 +5.38419664e-01 -1.07433748e+00 +2.56009966e-01 -7.21596181e-01 -8.11931193e-02 +5.56844234e-01 -6.46320283e-01 -9.32232082e-01 -2.29522347e-01 -8.39121699e-01 -1.26546025e-01 +8.01606059e-01 +1.70374885e-01 -1.01931371e-01 +1.20194577e-01 -6.12060487e-01 -5.36810279e-01 +4.74912614e-01 +4.78647679e-01 +7.27460146e-01 +1.70663791e-03 +7.99551427e-01 +3.84284973e-01 +1.01178598e+00 +1.04556012e+00 -7.29114234e-01 -7.42049396e-01 -3.16361547e-01 +7.61237815e-02 +5.84355831e-01 -4.35130268e-01 -2.97032539e-02 +3.70252311e-01 -8.09604675e-02 -9.32066739e-01 +7.21076310e-01 +1.13388336e+00 +2.07487106e-01 +4.72376049e-01 -4.70575064e-01 -1.57813907e-01 -4.69655246e-01 -4.73080844e-01 +1.06009698e+00 -4.13444698e-01 -6.71265483e-01 -2.92341173e-01 -1.26662152e-02 +1.13739893e-01 +2.13231966e-01 +6.34475887e-01 -4.72109735e-01 -3.97834659e-01 +2.72667885e-01 -2.65738070e-01 +9.80056047e-01 -3.20153564e-01 -5.67197382e-01 -4.32491899e-01 +5.32660708e-02 +2.47046780e-02 -1.71712786e-01 -2.41580054e-01 +2.89049178e-01 -1.00210750e+00 -4.07001764e-01 -5.89954257e-01 -4.03019451e-02 +2.95498669e-01 +1.11530411e+00 +2.37636298e-01 +2.75978982e-01 +5.55945635e-02 +2.25733936e-01 -4.33287114e-01 +4.25942391e-01 +1.40372053e-01 +6.42884076e-01 -3.78178358e-01 -8.06213498e-01 +1.50760040e-01 -3.06195188e-02 -7.55105689e-02 -7.36873820e-02 +3.85218173e-01 +4.44852822e-02 +9.29054558e-01 +4.11898226e-01 +8.25195551e-01 +1.31403521e-01 +9.19108331e-01 -7.81636313e-02 +5.24547279e-01 +1.95441991e-01 +5.41086905e-02 -2.02907845e-01 +3.82984221e-01 +1.33917725e+00 +4.11923140e-01 -3.71570289e-02 +3.61429751e-02 +1.12611258e+00 +3.82973820e-01 +2.50989914e-01 +9.64538455e-01 +4.95720476e-01 +2.11226821e-01 +6.52985990e-01 +8.87402445e-02 -5.28756380e-01 +2.05761537e-01 +1.42850786e-01 +3.84198368e-01 -3.03798616e-01 -5.69884002e-01 +1.09694175e-01 -6.96191117e-02 -7.93177038e-02 -2.83691943e-01 -1.32911608e-01 -4.93160844e-01 -4.40137759e-02 -3.75980824e-01 -6.43664226e-02 -9.83005092e-02 -4.69181985e-01 -3.11171919e-01 -2.91556001e-01 +9.18930992e-02 -6.28131628e-01 +1.27450383e+00 -3.81423295e-01 -3.93751174e-01 +5.96264973e-02 -2.69089669e-01 -3.28467607e-01 -4.47306633e-01 +3.12430430e-02 -2.30894074e-01 -1.36238277e-01 -1.69362631e-02 -5.91190793e-02 +7.08694011e-03 -2.39386156e-01 +2.89463311e-01 +4.53303754e-01 +2.44354606e-02 -1.70938283e-01 -2.37745360e-01 -1.18477046e-02 -1.15002997e-01 +4.00277451e-02 +2.14199826e-01 -1.26232669e-01 +2.61404395e-01 +4.77587469e-02 +3.80618662e-01 +2.52511710e-01 +3.16714227e-01 -5.41087866e-01 -3.13672662e-01 +6.66747928e-01 -6.09219782e-02 +3.54799889e-02 +1.21948218e+00 +1.98647872e-01 +1.02390349e+00 +7.95442909e-02 +1.95799470e-01 +1.78957760e-01 -1.74999818e-01 +5.28719947e-02 +5.93700595e-02 -5.74762166e-01 -5.86713195e-01 +9.06503856e-01 +3.96447182e-02 -1.92697972e-01 -2.71939933e-01 -4.83410329e-01 +1.27490861e-02 +5.55615067e-01 -6.23118281e-02 +3.92277092e-01 -4.63536114e-01 +7.05390126e-02 +5.69552481e-02 -1.30711824e-01 +4.87546027e-02 +2.62007773e-01 +1.88442364e-01 +5.21277189e-01 -4.66299504e-01 +1.68477803e-01 -7.64834404e-01 -4.92795110e-01 -1.75285578e-01 +5.30358732e-01 -5.28581679e-01 -7.75354821e-03 -4.03308421e-01 +2.11100638e-01 -2.42624998e-01 +6.31882071e-01 +4.75519210e-01 +1.25660777e-01 -1.89789653e-01 +6.73271477e-01 +2.89596822e-02 +6.13695383e-01 +6.77419841e-01 +7.33023584e-02 +5.91017604e-01 -4.50995527e-02 +1.03469288e+00 -1.08116292e-04 +5.93769073e-01 +1.07417002e-01 +6.47531509e-01 -3.05044353e-02 +5.10210395e-01 +2.56639898e-01 -1.38324946e-01 -3.29654902e-01 +2.71688014e-01 +4.45576042e-01 +1.02524400e-01 -2.08308309e-01 -3.07809860e-02 +2.74917215e-01 -4.99370664e-01 -6.15407586e-01 +2.24933341e-01 +2.10678726e-01 +3.00501883e-01 -2.92329788e-02 -2.99478501e-01 -3.10664147e-01 -1.59248650e-01 -5.49521856e-02 -4.32324149e-02 -4.61726248e-01 -1.38072699e-01 -7.49225691e-02 +3.97281885e-01 +3.75213802e-01 +3.99893701e-01 -2.46411905e-01 -8.34641457e-01 -3.06482892e-02 -7.37880409e-01 +2.82913923e-01 -1.69836193e-01 -6.95444793e-02 +4.74709086e-02 -9.13756713e-02 +3.35173793e-02 -1.84807271e-01 +6.31488860e-01 -2.92641483e-03 -1.18568307e-02 -1.67181730e-01 -7.30290562e-02 -1.15694053e-01 -1.18587136e+00 -5.34650445e-01 +1.81243733e-01 -5.89115739e-01 -3.26343834e-01 +3.61967593e-01 -7.61886314e-02 +3.63657951e-01 +3.55395496e-01 +4.50887382e-01 -1.99128181e-01 -5.96164726e-02 -3.32942218e-01 -5.86043954e-01 -6.10066116e-01 -4.27454636e-02 +2.94741541e-01 +6.10589199e-02 -2.09600896e-01 +3.18516731e-01 +5.16215146e-01 +5.64358175e-01 -1.56655192e-01 -1.15327811e+00 -1.86150029e-01 +7.74401546e-01 -2.28507191e-01 -7.75804341e-01 +1.08081150e+00 +3.04083109e-01 -1.23391606e-01 +2.90867329e-01 -2.38376960e-01 -4.22498733e-02 +1.19164264e+00 +2.99328774e-01 -2.74205446e-01 -2.65707642e-01 -3.47485542e-01 +4.03571486e-01 +1.20190784e-01 +9.20433924e-02 -2.55595177e-01 -4.42387998e-01 -8.79222751e-02 +4.67364579e-01 +4.38148290e-01 +9.76725593e-02 -7.34497905e-01 +7.15115890e-02 -1.49076590e-02 +7.21002594e-02 -4.69127260e-02 +1.96935505e-01 +2.18792692e-01 +4.88207340e-01 +1.16802767e-01 -7.94452429e-02 -7.98582494e-01 -3.14226002e-01 +1.91749483e-01 -1.10627964e-01 +4.10900358e-03 -2.96839058e-01 -3.70516479e-01 +1.48797750e-01 +5.02892118e-03 +1.08993426e-01 -3.17407817e-01 -7.18039423e-02 -5.25509939e-02 +1.64589822e-01 -5.67641675e-01 +4.49719042e-01 -3.42758685e-01 +5.68117678e-01 +1.47253346e+00 -2.40037337e-01 +9.68196020e-02 +3.66559386e-01 -1.52483225e-01 -3.13309394e-02 +1.02012724e-01 +9.78698909e-01 -3.09635215e-02 -2.81879693e-01 -4.02258694e-01 +6.20398045e-01 +3.05146545e-01 +7.45376825e-01 +6.40393734e-01 +1.79445088e-01 -8.58677149e-01 -8.45249519e-02 -7.08920896e-01 -1.02589643e-02 -1.89173091e-02 +1.23983216e+00 -6.72948780e-03 -3.29481542e-01 +3.03575903e-01 +8.83117259e-01 +5.52811444e-01 +2.44866446e-01 -1.15001345e+00 +6.41128540e-01 -1.17085330e-01 -1.65439916e+00 +1.57278574e+00 +4.24221069e-01 -7.06878126e-01 -1.77637506e-02 -1.62108451e-01 +7.06391215e-01 -1.65200248e-01 -4.68309317e-03 -3.79331082e-01 -6.75561011e-01 -3.86355400e-01 -3.84980083e-01 +4.26584780e-02 -1.61331868e+00 +3.21936756e-01 +4.44830686e-01 +7.24082768e-01 -1.43755406e-01 +3.54154617e-01 +1.23699856e+00 -1.54903047e-02 +1.12303875e-01 -4.10369962e-01 +3.34107690e-02 +4.21310902e-01 +9.47022066e-02 -7.54270434e-01 +3.19282562e-02 +6.27585709e-01 +9.59224343e-01 -4.79067750e-02 +7.19333291e-01 +1.49585676e+00 +7.82099426e-01 +7.28479385e-01 -5.96310496e-01 +3.73557299e-01 +5.88566303e-01 +3.70263338e-01 +4.87901390e-01 +2.84453243e-01 -9.63196874e-01 +1.28222716e+00 +1.17642486e+00 +1.71938002e-01 +1.09001271e-01 +2.41818447e-02 -1.29702711e+00 -6.01417720e-02 -1.94114780e+00 +3.06138843e-01 +1.13082135e+00 +6.68367267e-01 -6.41012311e-01 -8.79326820e-01 -2.13767266e+00 -1.07269323e+00 +9.24497068e-01 -2.91273475e-01 +8.68240297e-01 -1.07950293e-01 -4.79082704e-01 -3.58855188e-01 +1.70837730e-01 -7.26591423e-02 +7.42344618e-01 -1.94193557e-01 +5.36798723e-02 +8.18941593e-01 +1.46452665e-01 +2.14097604e-01 -1.20180333e+00 +1.05600131e+00 -4.43302065e-01 +8.77454996e-01 -5.90343177e-01 +5.02561808e-01 +2.69050747e-01 +2.61362344e-01 -4.94432032e-01 -5.90885989e-02 +9.91389155e-01 -2.47204453e-01 -2.82062709e-01 +3.08420181e-01 -4.12809789e-01 -1.06776035e+00 +2.29296628e-02 +3.30305010e-01 +3.16025943e-01 +3.57081115e-01 +6.68657124e-01 -2.24141717e-01 -6.05985343e-01 -6.27972841e-01 -7.63782680e-01 -9.14567351e-01 -4.18391496e-01 -7.11220443e-01 -7.91061878e-01 -1.14111412e+00 -1.06033914e-01 -1.41045675e-01 +8.85536615e-03 -3.74467969e-01 -4.01487112e-01 -7.95919150e-02 -1.61192962e-03 -7.29220212e-01 +6.78294063e-01 -1.62321374e-01 -4.99550730e-01 -8.45047086e-03 -2.00363442e-01 -4.54057187e-01 -6.58627212e-01 +2.25470871e-01 -3.80922049e-01 -6.88482165e-01 -3.88760895e-01 +1.82858244e-01 -3.48312557e-02 -2.97341615e-01 -2.72590220e-01 +1.34727105e-01 +9.88748074e-02 +1.36219934e-01 +1.52336866e-01 -3.40377092e-01 -5.20088792e-01 +6.07013665e-02 -3.37741613e-01 +7.89330378e-02 +9.41713303e-02 -7.42577314e-02 -1.32686526e-01 +2.67666519e-01 +5.84464669e-01 +1.00834675e-01 -3.39455456e-01 -7.78039396e-01 +8.11402261e-01 +1.80274978e-01 +7.83241913e-02 -3.96424159e-02 +6.84082210e-01 -3.62663388e-01 -9.61501300e-01 -2.92494684e-01 -1.09283455e-01 -1.71992868e-01 +2.66652435e-01 -2.01774433e-01 -5.14325142e-01 +4.28157598e-01 -3.96854967e-01 +6.81779385e-01 -2.17218131e-01 -8.68476331e-01 -8.21142197e-01 -1.29976845e+00 +7.01232016e-01 +2.66979247e-01 -3.14482957e-01 +1.44971594e-01 -1.11713302e+00 -5.18418133e-01 -8.33794892e-01 -4.54784065e-01 +5.05680561e-01 +9.82260890e-03 -5.48652291e-01 +4.79316473e-01 -9.50873554e-01 +6.67071223e-01 +6.55153096e-01 +8.90716836e-02 +1.32804525e+00 -2.20544785e-01 -1.00530457e+00 -7.06127822e-01 -5.28503954e-01 +1.89619455e-02 +9.10875678e-01 +6.19782388e-01 -1.11951625e+00 +4.90643710e-01 -3.66258949e-01 +8.01885545e-01 -1.28769567e-02 -3.79517078e-01 +1.84689358e-01 +2.64775068e-01 -2.28298903e-01 -1.90824404e-01 +1.52350187e-01 -4.79708910e-01 +6.13071285e-02 -2.34536439e-01 +3.40034992e-01 -4.91852105e-01 +2.80893177e-01 -1.10930145e+00 +2.30044916e-01 +3.13785017e-01 +7.21956491e-01 -4.78198528e-01 +1.19965330e-01 +2.47106642e-01 -1.45868570e-01 +7.33700216e-01 +5.46529651e-01 +3.43554020e-01 -3.06677688e-02 +3.26997995e-01 -2.52380949e-02 +3.38245392e-01 -4.00322825e-01 +1.83518440e-01 +8.12654376e-01 +6.19236827e-01 -9.86003458e-01 -1.75491259e-01 +2.82439888e-01 -7.07433820e-01 +5.77601016e-01 +1.03713736e-01 +4.63790655e-01 +5.65589871e-04 +2.83740520e-01 +5.85983396e-01 +5.95075727e-01 +1.61078975e-01 +2.44618848e-01 +7.09664106e-01 +3.53635043e-01 -1.57617062e-01 +2.79826820e-01 +8.93100500e-02 -2.83290476e-01 +1.79048538e-01 +1.48319632e-01 +3.30847353e-01 -1.78962424e-01 +5.03647998e-02 +9.97110903e-02 -5.74747741e-01 +1.99020538e-03 +1.02937865e+00 +1.06459773e+00 +3.19006145e-01 +3.94489095e-02 -2.31295884e-01 -6.73526049e-01 -4.11971748e-01 -7.64745712e-01 -4.69320506e-01 +2.57618397e-01 -2.35986993e-01 -6.51279628e-01 +7.47868866e-02 +9.96755660e-01 -2.94843942e-01 +5.37838936e-01 -9.91635978e-01 +3.78183424e-01 -3.49475443e-01 -9.85317290e-01 -2.42519692e-01 +2.07661614e-01 +7.87734389e-01 -2.66038686e-01 -3.56566995e-01 +3.01942796e-01 +4.14734662e-01 -6.77062944e-02 -2.02516794e-01 +2.56897718e-01 -7.33914971e-01 +3.19078088e-01 +2.53324032e-01 -1.51850104e-01 +4.26478565e-01 +6.81986213e-01 +1.25188804e+00 -5.56486659e-02 -3.65911126e-01 +8.38197351e-01 +1.09709549e+00 +1.21241905e-01 +1.08937180e+00 +1.52446777e-01 -4.53669876e-01 +2.75664125e-02 +4.44202811e-01 +1.60125029e+00 +7.59984016e-01 +2.23593846e-01 +2.79533833e-01 +5.49588859e-01 -8.48348439e-01 +2.01476418e-04 -3.58629562e-02 -6.40652299e-01 +1.79672730e+00 -6.44617900e-02 +1.33162037e-01 +6.99775934e-01 -1.32778168e-01 +3.69715214e-01 +1.20456815e+00 -6.78810775e-02 -7.78167427e-01 +9.05678391e-01 -8.39863420e-01 +3.32139730e-01 -7.41806567e-01 -2.70089991e-02 -1.66460067e-01 -7.10237503e-01 +1.71099305e-01 +3.35529059e-01 -3.54240447e-01 -1.08131215e-01 -3.14464152e-01 -1.82180792e-01 -6.86131477e-01 -1.46151459e+00 -2.02144861e-01 +6.75354600e-01 +2.35287562e-01 -2.11250603e-01 -4.88828905e-02 +7.04062402e-01 -9.24851179e-01 -5.83607197e-01 +1.54788062e-01 +1.07357717e+00 +5.98775875e-03 +7.29936779e-01 +1.14021227e-01 -2.46219948e-01 -5.46555340e-01 +7.93418109e-01 +6.76577270e-01 +8.11215043e-01 +1.96683630e-01 +7.45203614e-01 -2.42793471e-01 +2.62211770e-01 +4.23428370e-03 -1.18936226e-01 -5.02075493e-01 +2.80820541e-02 +4.66375679e-01 -1.17031312e+00 -3.58474821e-01 -3.99855316e-01 -8.96423221e-01 -1.89547598e-01 -2.58132219e-01 -3.92444581e-01 -4.98692870e-01 -1.89159840e-01 -3.33190084e-01 +2.17563882e-01 -9.21791140e-03 -4.18096095e-01 -3.12711507e-01 -6.65647388e-01 +2.88344175e-01 -8.76100540e-01 -5.56283176e-01 -1.18102896e+00 +3.51206720e-01 +7.42644966e-01 -4.93593812e-01 +2.48955533e-01 -1.20941848e-01 -3.12413216e-01 +2.27028988e-02 +8.51397872e-01 +1.69619322e-01 -1.03909187e-01 -1.32241762e+00 +1.57707065e-01 -3.32346201e-01 -1.05189598e+00 -1.83411315e-01 +3.35215867e-01 +7.46696949e-01 -6.44492507e-01 +1.37695312e+00 +1.67887911e-01 +3.14070703e-03 -4.90938634e-01 -3.08951885e-01 -6.20464422e-02 -1.79263949e-01 +3.45483303e-01 +1.95250899e-01 +5.77089153e-02 +7.05805480e-01 -3.11048359e-01 +4.67818409e-01 -1.38195798e-01 -9.75420326e-02 +4.07081634e-01 +2.01725096e-01 -7.46588826e-01 -2.70304263e-01 +4.24287796e-01 -3.90040487e-01 +4.83497262e-01 -2.96318054e-01 -1.06813967e+00 -7.67621517e-01 -6.94302976e-01 +9.75535512e-02 -5.50134897e-01 +5.37368715e-01 +8.32314938e-02 +6.93369210e-01 -3.71427834e-01 -8.38462889e-01 +2.22884402e-01 -2.50710189e-01 -1.43496072e+00 +1.86861008e-01 +2.13694111e-01 +9.13876414e-01 -8.50212574e-02 -8.75209510e-01 -3.73092592e-01 -7.41133392e-01 -1.38108015e+00 +4.41526324e-01 +6.57278579e-03 -1.77250588e+00 -6.71706080e-01 +1.23514926e+00 -4.10232335e-01 +5.10270298e-01 -9.99099195e-01 +2.01542303e-01 +8.13477337e-01 +2.20205978e-01 +2.08870023e-01 +2.68498570e-01 -9.41842794e-01 -9.41964626e-01 -4.27819967e-01 -5.99218667e-01 -4.16938394e-01 +3.44688922e-01 -7.51659181e-03 +2.28837371e-01 +3.63750130e-01 +4.58743162e-02 -5.60166597e-01 +5.26737511e-01 -2.21568923e-02 -4.17989761e-01 +2.77087420e-01 -5.60457230e-01 -3.25506270e-01 -1.37033537e-01 +3.49786252e-01 +3.15702334e-02 +3.33758354e-01 +6.82204127e-01 -4.58283931e-01 +4.03411761e-02 -9.27338839e-01 -4.37694937e-02 +9.91232023e-02 -7.02097476e-01 -7.44615674e-01 +5.44206440e-01 +1.54970214e-01 +1.81347802e-01 +6.28331780e-01 +4.00047302e-02 -4.47538227e-01 -8.03937376e-01 +4.07576710e-01 -7.36933470e-01 +4.12447959e-01 +4.80725944e-01 +1.45382239e-02 +2.94506073e-01 +4.36739504e-01 -1.48644209e-01 -2.65028834e-01 +3.17784637e-01 +1.00934660e+00 +8.21824849e-01 -3.58484030e-01 -5.06873846e-01 -6.64623559e-01 -9.63093340e-01 +5.09200215e-01 -6.44682288e-01 -9.62278396e-02 -9.58338827e-02 -8.10288608e-01 +4.97191727e-01 +3.18049312e-01 +5.33834577e-01 +6.39260784e-02 +1.02196634e+00 -2.12107748e-01 -1.92640737e-01 -3.90822470e-01 +1.02726066e+00 +2.52988577e-01 -4.31179076e-01 -2.58347631e-01 +6.62891626e-01 -1.08400558e-03 +9.10116792e-01 +1.05176389e+00 +6.81477427e-01 +1.57953513e+00 +1.49786621e-01 +4.86733943e-01 -5.52592039e-01 -4.33647245e-01 +1.04346561e+00 +1.10134713e-01 -1.42558143e-01 -9.58278954e-01 +5.10107458e-01 +7.07105398e-01 +8.83006454e-01 +5.03798425e-01 +3.90122712e-01 -4.57582802e-01 -1.66826323e-02 +1.72526300e-01 -1.02072549e+00 -3.12092453e-01 -1.38251126e+00 -8.43019068e-01 -1.03096890e+00 -4.93535608e-01 -6.05896771e-01 +1.78599060e+00 -6.54277265e-01 +2.53008068e-01 -3.74205053e-01 -5.50083697e-01 +4.85723883e-01 +1.36511099e+00 -3.77562910e-01 +1.74552917e-01 +1.64688742e+00 -5.38574934e-01 -1.21929884e+00 -5.41724227e-02 -8.97579491e-01 +1.00668824e+00 -8.56328845e-01 -1.37039900e+00 -4.60538387e-01 -4.25749660e-01 +2.07662091e-01 +1.78865954e-01 +1.08971238e+00 -1.24456882e+00 +5.28747320e-01 -2.87838310e-01 +4.77608114e-01 +1.27868652e-01 +2.95250624e-01 +3.18161041e-01 +1.33346198e-02 -8.63567069e-02 -3.05147856e-01 +7.43084311e-01 +5.24928749e-01 +4.99591559e-01 -1.88306510e-01 -2.45766386e-01 +1.34716988e-01 -2.40019143e-01 -1.32006243e-01 +4.21194345e-01 +2.44340211e-01 +3.01175833e-01 +5.92023134e-02 +4.90500122e-01 +8.98411751e-01 -3.99106562e-01 +2.30611539e+00 +7.34277219e-02 +7.62983859e-01 -2.81005919e-01 +6.63524926e-01 +7.89719541e-03 -1.24328502e-01 -1.01422477e+00 +3.08316290e-01 -1.56765416e-01 -5.85645974e-01 +2.18550280e-01 -4.88016397e-01 -1.32581115e+00 -2.95703948e-01 -6.38688147e-01 -5.22721373e-02 -6.58592701e-01 -3.53581816e-01 +2.01130122e-01 +1.73990592e-01 +2.39714131e-01 -1.04277730e+00 -2.22507417e-01 -7.79421747e-01 -1.23340201e+00 -1.91030174e-01 -3.03456038e-01 +5.26036024e-01 -9.18785572e-01 +8.06094185e-02 +2.26453260e-01 -2.69979924e-01 -9.48168874e-01 +2.71115810e-01 -2.57031053e-01 -7.45120943e-02 -6.66016579e-01 +2.78666407e-01 +3.54883999e-01 -1.18457163e-02 -2.72310972e-01 -4.78815764e-01 +2.90418774e-01 +3.39465082e-01 +3.82649302e-01 -2.37306967e-01 -8.28740358e-01 +2.54916668e-01 -1.99856922e-01 -4.63085771e-01 +1.31785393e-01 -4.72697318e-01 +9.52044576e-02 +1.07272720e+00 -9.45890903e-01 -1.05631471e+00 -4.40901518e-01 -3.48925233e-01 -9.53391373e-01 -7.11632729e-01 +3.25902402e-01 -1.55682757e-01 +8.46341133e-01 -5.00747189e-03 +5.13223633e-02 -3.26066047e-01 +1.44359972e-02 +1.50914222e-01 -8.86246800e-01 -7.33774081e-02 -5.09803891e-01 -3.65708381e-01 +2.78938383e-01 -8.00119221e-01 -7.02795923e-01 +4.00760740e-01 -4.78697151e-01 -2.85037011e-01 +3.36129636e-01 -5.09167090e-02 +4.04793292e-01 +2.26245940e-01 +2.49927595e-01 -1.07407951e+00 -1.87298286e+00 -7.88573861e-01 -3.38868320e-01 -1.42956340e+00 +1.73144657e-02 +4.72244173e-01 +2.24185765e-01 -4.04552251e-01 -3.19930911e-01 -9.20317918e-02 -8.15348476e-02 -7.47128308e-01 -1.03201139e+00 +4.08354014e-01 -1.74773526e+00 -4.25015777e-01 -1.15963256e+00 +1.38740420e+00 -3.62369150e-01 +9.94637072e-01 -1.12432368e-01 +1.17322791e+00 +1.45921826e+00 +6.08096480e-01 +3.05172950e-02 -4.57575470e-01 -3.46011609e-01 +2.98367262e-01 -1.89308912e-01 +8.64478126e-02 +3.06374669e-01 -4.43445891e-01 -3.33469480e-01 +7.53514543e-02 +3.78944695e-01 +2.22650133e-02 -7.63664663e-01 -1.87075943e-01 -7.54913032e-01 -5.04829250e-02 +1.18547308e+00 -9.80365694e-01 -3.51705641e-01 +2.17286438e-01 +4.35961127e-01 -4.66676325e-01 +3.76341820e-01 -2.80860990e-01 -4.47416723e-01 +6.15747511e-01 -1.65520048e+00 +1.02121599e-01 -1.05442941e+00 +5.51002860e-01 +2.12294862e-01 -6.89823687e-01 -8.36800098e-01 -2.06928551e-01 -8.26163769e-01 +1.98867142e-01 -2.99096167e-01 +5.95584698e-02 +1.80354014e-01 +9.07371938e-02 +2.07944736e-01 -1.96469158e-01 -6.61282539e-02 -2.97298692e-02 -1.28530109e+00 +1.87170506e-01 -4.50890064e-01 +1.35980114e-01 -4.86733466e-02 -3.85855496e-01 +4.30982143e-01 +2.28999645e-01 +2.93933302e-01 +5.01345471e-03 -4.35843110e-01 +1.29249126e-01 +1.76999032e-01 -4.31074679e-01 +3.07677656e-01 +7.43931383e-02 -3.24195057e-01 -1.34106204e-01 +1.55846083e+00 +1.39320726e-02 -2.64939237e-02 -1.31137267e-01 -5.06751388e-02 +7.59131014e-01 +1.71220586e-01 +3.87796015e-01 -7.29784742e-02 -1.30051291e+00 -3.08436062e-02 +1.00197203e-01 -2.17006311e-01 -5.57968840e-02 +5.19300625e-02 +4.31988925e-01 +1.13453075e-01 -4.82700735e-01 -5.06571412e-01 +2.25706011e-01 +5.29612117e-02 +1.57991886e-01 +3.23705405e-01 -9.71193016e-01 -1.00759566e+00 -1.02400191e-01 -5.05426526e-01 -2.92929709e-01 +2.73752689e-01 -6.88365638e-01 -1.47523731e-01 -7.36136913e-01 -2.55908012e-01 +1.09372679e-02 -1.64216399e-01 -3.11613292e-01 +7.95545876e-01 -3.65819484e-01 -2.22115591e-01 -2.70401061e-01 -1.54145956e-01 -3.63217086e-01 +2.57470965e-01 -1.70920581e-01 -4.73393619e-01 +2.65302926e-01 +1.52849972e-01 +2.45097786e-01 -1.06775665e+00 -3.61929655e-01 +1.45832643e-01 +1.00030017e+00 -2.83905357e-01 -5.00390708e-01 +4.75912273e-01 -3.88225526e-01 +2.09874302e-01 +2.01187879e-01 -3.35648060e-01 -2.62352079e-01 +2.44033471e-01 -4.97216173e-02 +1.02058053e-01 +1.74761981e-01 -3.13452363e-01 -9.17231366e-02 +1.03670038e-01 +1.45510122e-01 -2.49255314e-01 +6.45991743e-01 -2.40434378e-01 +7.81150639e-01 +3.70901763e-01 -5.48169315e-01 -4.01094884e-01 +3.82471472e-01 -2.42341250e-01 +4.41598356e-01 +5.47945499e-01 +5.84897846e-02 +1.61494359e-01 +5.66597164e-01 +4.75465536e-01 -1.48850590e-01 -3.83116245e-01 -3.58352929e-01 +2.50756349e-02 +6.71419322e-01 -1.58467248e-01 -5.86775482e-01 -6.92540586e-01 -3.54157537e-01 +3.38605285e-01 +4.24123377e-01 +2.75426940e-03 -6.89230978e-01 -2.47479558e-01 -7.02224493e-01 -2.80030668e-01 -2.71482944e-01 -1.27455324e-01 -2.52254963e-01 -2.31132790e-01 +3.26349437e-02 -3.17385167e-01 +2.00034659e-02 -5.33143759e-01 +1.81695018e-02 -7.08710790e-01 -7.92949870e-02 +1.06371872e-01 -1.16739534e-01 +1.25546545e-01 -9.87588912e-02 +2.61956215e-01 +9.40396786e-02 -1.03485011e-01 -2.55108500e+00 +4.16756034e-01 +7.47532070e-01 -2.84868360e-01 -1.13115370e-01 -6.81199968e-01 -2.56722778e-01 -1.00504801e-01 -2.00007092e-02 -3.57386142e-01 +3.44180673e-01 +6.71647370e-01 +6.23762012e-01 -5.22575676e-02 +4.27585036e-01 +2.79030681e-01 -1.80216938e-01 -3.10177058e-01 +8.73703718e-01 -6.10795677e-01 -2.42830783e-01 +9.45112228e-01 -3.52565825e-01 +1.37619257e-01 -4.96009737e-01 -5.62752858e-02 -7.80089915e-01 -2.23061830e-01 +4.02819097e-01 +3.22344154e-01 +2.30505362e-01 -4.71273869e-01 +6.79388106e-01 +1.18532382e-01 -3.19242477e-01 -4.33909267e-01 -3.89163196e-01 -5.98708272e-01 -3.78451765e-01 +6.76050544e-01 -1.84125334e-01 +1.71817467e-01 -3.82003099e-01 -7.47770309e-01 +3.24358106e-01 -5.29717743e-01 +9.68807459e-01 +1.91720486e+00 -1.04796588e+00 +1.10294104e+00 +1.35806763e+00 -4.32112813e-01 +9.20390785e-01 +7.52702892e-01 -1.23578906e-01 +1.04068804e+00 -7.81930864e-01 +8.97932351e-01 -1.03454433e-01 -6.35152817e-01 -2.50178635e-01 +8.12656581e-01 +1.52648827e-02 +1.04540753e+00 -2.07250386e-01 +5.33229351e-01 +7.09265232e-01 +1.73271149e-02 -1.45298815e+00 +1.15526402e+00 -6.37261152e-01 +9.49749291e-01 -2.32995367e+00 +1.37836531e-01 -2.24859405e+00 -7.44119048e-01 -2.34053522e-01 +1.99680597e-01 +3.16808373e-01 -1.28997251e-01 +1.16738044e-01 -2.12642491e-01 +8.96940947e-01 +5.87695658e-01 +8.54305327e-02 +2.36108109e-01 +4.35038120e-01 -7.54413843e-01 -5.00529349e-01 +1.52140930e-01 +4.49805915e-01 +2.13289037e-01 -4.76820618e-01 +3.39970797e-01 -3.21773350e-01 -2.73977607e-01 -1.11037529e+00 -8.65242258e-02 -1.88870043e-01 -1.31980792e-01 -4.30438876e-01 +7.05415681e-02 -3.96188676e-01 -4.47231233e-01 -2.32054472e-01 +4.13927168e-01 -1.22521453e-01 +5.04200645e-02 -7.15471685e-01 -5.61756015e-01 +1.52011022e-01 +9.62101519e-02 -1.17224753e-01 +1.02842925e-02 -1.91927597e-01 -1.27008259e-01 +1.99856937e-01 +6.85945749e-01 +1.05005307e-02 -6.18070588e-02 -1.05862971e-02 -5.95917821e-01 -2.44736761e-01 -4.20332760e-01 +2.78394431e-01 -1.09275635e-02 -1.04470730e+00 -2.47385398e-01 +3.51722658e-01 -2.14020386e-01 +2.11286351e-01 -3.34476680e-01 -5.97278118e-01 -2.84395128e-01 +3.14910322e-01 -2.07276896e-01 -4.31199223e-01 +7.93519989e-03 +5.33645868e-01 +2.36413822e-01 -2.95302063e-01 -3.10370922e-01 +5.73439479e-01 -9.87745702e-01 -8.27064365e-02 -1.73704177e-01 +7.90161073e-01 +6.89737201e-02 -8.82885337e-01 -1.20390587e-01 +2.90150084e-02 +7.83050358e-01 +1.10930777e+00 -1.44095704e-01 -3.93244714e-01 -3.87412131e-01 +2.75285304e-01 -1.69675305e-01 -3.67562324e-01 -2.31349677e-01 -3.52199107e-01 -4.98716861e-01 -2.61715949e-01 -6.31513715e-01 -2.12519467e-01 -2.98848599e-01 +4.67704535e-01 +1.15235291e-01 +4.20798540e-01 -1.86329380e-01 -3.07046771e-01 -3.09871763e-01 -8.58165622e-01 -6.50426805e-01 -9.56867874e-01 +6.24333382e-01 +1.09863019e+00 +4.72466201e-02 +8.28142524e-01 -1.79594140e-02 -4.39960033e-01 -2.20731020e+00 +6.01652302e-02 +6.24905825e-01 -1.05721742e-01 +2.16380674e-02 +6.99210763e-01 -4.60989296e-01 -7.07031310e-01 -7.16217279e-01 +1.55030310e-01 -2.97876507e-01 -2.82765329e-01 -8.47398579e-01 +8.32773864e-01 -1.34206939e+00 +2.09060609e-01 +8.76252726e-03 +1.21281482e-01 -8.23780820e-02 +7.42480278e-01 +1.30391851e-01 +3.91094834e-01 -2.59527236e-01 +9.73490477e-01 +5.28034158e-02 +3.22960764e-01 -7.31448904e-02 -2.33274609e-01 -1.34564412e-03 +1.19702846e-01 -8.67125466e-02 -6.01139843e-01 +7.88152311e-03 +8.93126667e-01 +3.45883340e-01 +1.11362645e-02 +7.12811708e-01 +3.22929397e-02 -3.40520561e-01 -2.51525581e-01 -1.66662008e-01 +1.67889237e+00 +3.57255340e-01 +4.53678668e-01 -7.39205778e-01 +6.15555406e-01 -1.23332571e-02 +4.19235140e-01 +1.07500982e-02 +6.72613904e-02 +8.59535277e-01 +1.08932164e-02 +6.68196306e-02 -1.18215072e+00 -1.10563648e+00 -4.85043108e-01 +2.64734030e-01 -1.91649407e-01 +1.78479422e-02 -1.75191522e-01 -6.84455037e-01 -2.25346953e-01 +5.36680892e-02 -3.37873489e-01 -1.03910327e+00 +2.46754169e-01 -1.09215248e+00 -4.18125212e-01 -5.02317352e-03 -7.52442896e-01 -2.88642764e-01 +5.30523472e-02 +3.91220339e-02 +7.29251862e-01 -7.70172596e-01 -6.66485727e-01 -2.80079186e-01 -8.21640253e-01 -1.06114221e+00 +8.22451591e-01 +1.49724737e-01 -7.88470984e-01 -1.13678932e-01 -4.75729913e-01 -9.37617198e-02 +4.06524032e-01 +9.01811477e-03 +2.72962123e-01 +7.12961257e-01 -5.60027659e-01 +3.49463932e-02 -3.27100515e-01 -2.18987003e-01 +5.71412086e-01 +2.88144201e-01 -3.61692607e-02 -3.62332910e-02 +5.94694495e-01 +7.30377436e-01 -4.05454002e-02 +5.53403832e-02 -4.65907186e-01 -3.71165067e-01 +6.13536462e-02 +5.09107351e-01 +6.68891013e-01 -1.87525436e-01 +1.21276356e-01 -1.15772665e-01 -1.63230181e-01 -1.37886143e+00 +4.44618076e-01 +7.21253037e-01 -2.81005919e-01 +3.53559732e-01 +2.46384472e-01 +3.38156551e-01 -4.45538282e-01 -1.84640691e-01 +9.87891078e-01 +8.67868781e-01 +4.24956411e-01 +6.27209693e-02 +4.41097617e-01 +5.24725556e-01 -4.04454559e-01 -6.35281265e-01 -7.83236146e-01 -2.30082959e-01 -3.64146769e-01 -1.26634344e-01 -4.42503273e-01 -1.95064440e-01 +1.23853944e-01 -5.58750868e-01 +7.02789605e-01 +3.36480349e-01 +2.53299233e-02 +1.38757959e-01 -2.18168736e-01 +3.39297622e-01 -1.00943911e+00 +1.77772313e-01 -7.48939887e-02 -7.00174943e-02 -3.93560588e-01 +3.47426444e-01 -3.05863559e-01 -2.48041853e-01 +7.87509918e-01 +9.66388267e-03 +4.75772560e-01 -3.08622923e-02 -2.17743460e-02 -3.70530635e-01 -6.60695314e-01 -1.35079324e-01 +5.09249605e-02 -2.52509683e-01 -1.23839009e+00 +1.26674488e-01 +3.92193675e-01 +8.00318196e-02 -2.59400338e-01 -1.43664598e+00 +7.51224458e-01 -3.71462256e-01 +2.93720692e-01 +1.61632970e-01 -3.70057404e-01 -7.78768361e-02 +2.62483150e-01 +1.75612912e-01 +4.73438352e-01 -2.40939796e-01 -8.31371695e-02 -7.45752230e-02 -3.95569772e-01 -4.77114469e-01 -8.36471766e-02 +4.51075554e-01 -1.13369180e-02 +3.55832726e-01 -7.29471922e-01 -5.33648312e-01 -6.73898220e-01 -4.96807918e-02 +4.95742001e-02 -6.04344189e-01 -8.74639630e-01 -6.36808097e-01 -7.75099933e-01 -5.57565808e-01 -2.81195678e-02 -3.81776392e-01 +2.06373379e-01 +2.23314673e-01 -7.14758515e-01 -5.55463076e-01 -5.63215196e-01 +4.56751101e-02 +2.52423227e-01 -9.37089622e-01 +8.31808448e-02 +5.90345442e-01 -2.49850646e-01 -1.24163496e+00 +1.38885632e-01 -3.48954827e-01 -1.50074720e-01 +9.30386037e-02 -5.44585735e-02 -5.58045506e-01 -6.21612463e-03 +1.48243725e-01 +9.64337349e-01 +9.67370421e-02 -9.55365658e-01 -5.32793283e-01 +7.12185130e-02 +2.58511513e-01 +4.48172361e-01 -7.44857118e-02 +7.26636201e-02 -9.13899094e-02 -1.14176905e+00 +3.55755165e-02 +8.08680058e-01 +8.17940712e-01 -2.24417031e-01 +5.79393029e-01 +2.85681874e-01 -6.22810572e-02 +4.09433037e-01 +2.69716978e-01 +1.10709079e-01 -3.92378539e-01 -2.50286043e-01 -7.96222806e-01 +3.64633679e-01 +6.57292426e-01 +1.29681870e-01 +6.51603878e-01 +3.67819995e-01 +1.73989594e-01 -5.47707081e-01 -1.01486504e+00 +4.72568795e-02 -1.00592005e+00 -1.49390256e+00 -6.25927567e-01 -7.69634962e-01 +1.91228464e-01 -5.79389691e-01 -1.37356007e-02 +1.06515002e+00 -2.78332382e-02 -3.91153961e-01 +9.64541733e-01 -5.72676837e-01 -3.70280385e-01 -4.10849959e-01 +1.17169768e-02 +5.95429361e-01 +1.40131152e+00 +3.32332343e-01 +5.65721989e-01 -1.14786494e+00 -1.23775983e+00 -6.83434188e-01 +4.66795415e-01 -1.32925212e+00 -1.76422745e-01 +5.86955607e-01 -6.02118492e-01 -4.32199746e-01 -7.09660769e-01 +1.50422722e-01 -2.02541173e-01 -2.27698639e-01 +3.03428620e-01 +1.14328611e+00 -6.36987314e-02 -9.93439406e-02 +3.01680893e-01 +1.09692082e-01 +1.42594233e-01 -5.65836191e-01 +6.45076454e-01 +5.52992582e-01 -5.62791824e-01 -2.20654815e-01 +4.80564386e-01 +3.17942679e-01 +8.24868560e-01 +5.30615866e-01 +7.81623304e-01 +4.52049345e-01 +3.22956853e-02 +2.56572962e-01 +3.95822197e-01 +9.66869354e-01 -3.11929226e-01 +1.84730515e-01 -1.62032396e-01 -1.74631812e-02 +8.64893943e-02 +2.49962941e-01 -2.95595855e-01 +8.11177075e-01 -5.75448096e-01 +5.14117777e-01 +3.17937285e-01 -3.27622592e-01 -2.72714764e-01 +9.16199684e-02 +6.80691972e-02 +2.85574999e-02 -3.14047515e-01 +1.24341518e-01 -2.68949836e-01 +2.56177753e-01 -1.52460679e-01 -5.52772105e-01 +8.03932071e-01 +4.11499202e-01 +2.30400518e-01 -5.73161244e-01 -1.05945997e-01 +1.84957281e-01 +8.24377164e-02 +4.92377192e-01 +4.12588418e-01 -6.98672175e-01 +7.16794908e-01 -3.09401900e-01 +2.53476202e-01 +1.33028761e-01 +1.80265859e-01 -2.80150712e-01 +2.10386422e-02 -1.09784806e+00 -6.26375675e-02 -1.57126516e-01 +1.24752194e-01 -8.35798264e-01 +7.12759793e-01 +2.68329591e-01 -5.11824846e-01 -1.07841754e+00 -1.46716654e-01 +3.93697590e-01 -4.10949826e-01 -1.06895244e+00 -5.43661177e-01 +3.38689744e-01 +5.89396834e-01 +2.63241857e-01 +4.89456356e-01 -8.36467296e-02 -5.31047404e-01 -4.33024883e-01 +1.61427066e-01 +6.05398491e-02 +1.05547488e-01 +3.00721169e-01 +1.01814210e+00 -1.10673353e-01 +1.15419023e-01 +6.43655807e-02 +1.96768746e-01 +1.17356457e-01 -3.93621996e-02 +1.33172166e+00 +1.13767780e-01 -5.52929521e-01 -6.42357111e-01 -4.17953283e-01 -1.15825605e+00 -1.15773268e-01 -1.40371490e+00 -1.87976569e-01 -6.30177438e-01 -2.70774961e-01 +5.37936926e-01 -2.44891085e-02 -2.98074156e-01 +8.03361893e-01 -3.74423444e-01 +1.54248923e-01 +1.17417443e+00 -1.28041282e-01 -5.84964395e-01 -2.70804971e-01 -2.13789165e-01 -6.00749254e-01 +2.50571132e-01 -6.33076310e-01 +3.60941797e-01 -4.67201583e-02 -6.04808033e-01 +2.27668613e-01 +3.02753091e-01 +3.38780969e-01 +1.54191941e-01 +3.57280821e-01 -2.35970140e-01 -7.88547039e-01 +2.74420202e-01 +1.04837513e+00 -9.64747218e-04 +2.96419203e-01 -5.04531525e-03 -7.11613774e-01 -6.60361528e-01 +2.07317099e-01 +3.54786485e-01 -1.07441664e-01 +4.94156480e-01 +6.30446374e-01 -3.22699755e-01 +2.09438190e-01 +7.37804532e-01 +1.90537557e-01 -6.53412998e-01 -4.44837213e-01 -2.68483400e-01 -4.84745234e-01 +3.86675477e-01 -6.37257874e-01 -5.58858216e-01 +5.26164055e-01 -2.56608427e-01 +7.34715238e-02 -3.45509052e-01 +2.82857478e-01 +8.88361871e-01 -3.26733917e-01 +8.32412913e-02 +9.20000002e-02 +1.06206790e-01 +1.61873223e-03 +8.83207440e-01 +8.09608161e-01 +4.64279205e-01 +1.20514548e+00 -1.77082092e-01 +5.37532754e-02 +9.25538957e-01 -3.53126347e-01 -6.06231451e-01 -6.79150522e-01 +7.67821848e-01 +1.60129905e+00 -6.56642497e-01 +3.64565402e-01 +6.28070474e-01 -8.75820160e-01 -7.71073774e-02 +3.11744303e-01 +6.28635406e-01 -4.51934129e-01 +7.46041417e-01 -6.09082878e-01 +8.20534170e-01 +3.18898588e-01 +2.25055203e-01 -5.56039333e-01 -7.99637660e-03 -6.27948761e-01 -1.03208435e+00 +4.15452451e-01 -9.49717879e-01 -1.83126330e-01 +8.65741372e-02 -9.32734668e-01 +2.25468185e-02 -5.46192467e-01 +3.32198292e-02 -1.53215472e-02 -7.66010702e-01 -8.58565509e-01 -4.43121225e-01 -4.04400706e-01 -2.31121182e-01 +8.98568809e-01 -5.25420681e-02 -4.67433482e-01 -3.45035195e-02 -6.17864788e-01 -7.23154724e-01 +4.10343528e-01 +4.47677702e-01 +4.74020839e-01 +8.37919056e-01 -1.09256434e+00 -4.61754262e-01 +4.84381914e-02 -9.19219255e-01 +4.97413903e-01 +7.58889377e-01 +5.63848376e-01 -1.24180093e-01 -2.67308444e-01 -5.56782424e-01 +2.74732828e-01 -5.67390442e-01 +4.98211622e-01 +2.32159987e-01 +1.87220480e-02 +1.37087822e+00 +5.41688621e-01 +3.68895948e-01 +2.75035769e-01 -6.21896684e-01 -6.89295173e-01 +4.74908799e-01 -2.60200828e-01 -4.05277312e-01 +6.05797231e-01 -3.41362536e-01 +6.94673479e-01 -1.94400322e+00 -2.13059351e-01 -1.18137097e+00 +4.52143580e-01 +1.58933854e+00 -3.20916891e-01 -1.26360059e+00 +3.91438365e-01 +1.30505073e+00 +8.27060342e-01 +2.07284302e-01 +6.15496002e-02 -4.75685894e-01 -9.23328340e-01 -3.76242369e-01 -4.74422425e-02 +4.47544783e-01 -8.80424976e-01 +2.49455005e-01 +4.76826608e-01 +3.29115897e-01 +2.39126291e-03 -7.10405767e-01 -4.52696174e-01 +2.48360112e-01 +8.34440906e-03 +7.68630728e-02 +1.05580777e-01 -5.32092392e-01 +1.07591704e-01 -1.42078323e-03 -4.91325408e-01 -7.98516124e-02 +1.21780686e-01 +1.78780928e-01 +2.59179205e-01 +3.93066071e-02 +1.39187455e-01 +2.85854012e-01 +4.12956864e-01 +2.94469953e-01 +1.53685421e-01 -4.47533786e-01 -1.88024312e-01 -7.79358983e-01 -1.52603316e+00 -5.01718163e-01 -3.83298337e-01 +6.97287694e-02 -6.77876651e-01 -5.10379314e-01 -1.19911022e-01 +7.00841069e-01 -3.01635116e-02 +1.69208124e-01 -5.75076938e-01 -5.34356833e-01 -1.15212214e+00 -6.49284065e-01 -3.56885582e-01 -4.16095585e-01 +2.27338791e-01 -6.10105634e-01 -7.06815124e-01 -1.08392465e+00 -3.00885111e-01 -2.39926994e-01 -1.24901438e+00 -2.19262213e-01 -9.79540348e-02 -4.34299380e-01 +3.95035930e-02 -2.82643676e-01 -1.92612529e-01 +2.69649494e-02 +7.11241066e-01 +5.02072215e-01 +4.82188731e-01 -2.63361603e-01 -4.42600757e-01 -5.77518821e-01 -4.22880560e-01 -1.84714055e+00 +6.28069341e-01 +4.99566365e-03 +3.13589573e-02 +5.61874025e-02 +3.14961702e-01 -2.74275631e-01 -6.65822089e-01 -7.81486332e-02 -8.48354325e-02 +5.75396359e-01 -6.17136717e-01 +4.75395024e-01 -4.12519187e-01 +5.21081924e-01 +4.59456801e-01 +2.92851925e-01 +1.17711581e-01 +3.20846826e-01 -5.11714578e-01 +3.61361235e-01 -1.72296226e-01 -1.05105303e-01 -6.26589507e-02 -2.46979930e-02 +6.08299077e-01 +2.71815300e-01 +4.14326321e-03 -1.06929982e+00 +2.67145962e-01 +5.01271307e-01 +8.44333708e-01 +1.87542036e-01 -1.76469460e-01 +9.42154229e-02 +3.21027339e-01 -1.32553947e+00 -1.00480974e+00 -4.57047492e-01 -3.47357333e-01 -8.41815352e-01 -3.89585912e-01 -6.62420467e-02 +5.31850159e-01 -3.80312055e-01 -8.58454108e-01 -2.86703110e-01 -2.81688064e-01 -7.81461656e-01 -8.84851873e-01 +1.34363726e-01 -1.21428512e-01 -3.19669604e-01 +9.18554246e-01 -1.32911718e+00 +2.09835500e-01 -5.09405553e-01 +6.55218780e-01 +5.85839748e-02 +1.11107719e+00 +4.96345103e-01 +3.51592362e-01 -3.53274234e-02 -7.94259667e-01 -8.25045764e-01 +6.88243806e-01 -1.19343020e-01 +3.02602619e-01 +3.02525908e-01 +5.23231208e-01 -2.58637309e-01 -5.85730433e-01 -9.73551422e-02 +2.80167520e-01 +9.44052935e-02 +4.04985726e-01 +4.16259468e-01 -3.01803112e-01 +2.42370114e-01 -7.41189420e-01 +1.89425260e-01 +8.26587617e-01 -1.45201012e-01 +2.50627816e-01 -2.30682313e-01 -1.99439183e-01 +7.82048404e-02 -6.91106096e-02 +6.52110800e-02 -1.46616071e-01 +1.57047927e-01 +1.10369734e-01 -8.53444040e-02 -6.46157712e-02 -1.16795838e-01 -3.11423302e-01 -3.69882673e-01 -3.56299788e-01 -8.38798106e-01 -2.54089475e-01 -9.60821286e-02 -5.67072690e-01 -3.89415443e-01 -8.13094825e-02 -8.36663485e-01 -1.04084961e-01 -7.67161667e-01 -3.49798203e-01 -5.86376078e-02 +4.20746841e-02 -3.44259650e-01 -7.96401262e-01 +4.80117947e-01 -1.99023694e-01 -7.42876053e-01 -1.17313907e-01 -1.49747282e-01 -4.93155658e-01 -6.11669362e-01 -1.19372711e-01 -6.07004523e-01 +1.03851445e-01 +9.10227776e-01 +6.22122407e-01 +2.02200748e-02 +4.33783591e-01 +8.99326876e-02 +2.18698665e-01 +6.01670325e-01 +6.34018004e-01 +2.94229209e-01 -8.67043510e-02 +3.76209587e-01 +6.84654295e-01 +3.99828553e-01 +7.48807669e-01 +2.24490836e-01 -1.64471582e-01 +7.86432400e-02 +4.67417799e-02 +8.39230537e-01 +3.80236745e-01 +5.91187835e-01 +8.62713456e-01 -1.12891674e-01 +1.27131920e-02 -9.22012985e-01 +5.13528347e-01 +2.77312011e-01 +9.86669436e-02 +2.15780474e-02 -2.60449275e-02 +3.62371355e-01 +1.34540111e-01 -1.52839541e-01 +9.67188478e-01 -1.61983654e-01 +6.57561004e-01 +2.40734175e-01 +9.42988873e-01 +5.31214595e-01 +5.96207976e-01 +1.15681551e-01 -3.05335104e-01 -8.29720199e-01 -1.11462720e-01 -5.50210714e-01 +6.82572648e-02 -1.37612879e-01 +6.03785396e-01 -5.97536087e-01 -9.71551165e-02 -2.45048195e-01 -9.96069789e-01 -4.98802900e-01 +1.13309227e-01 -1.82596892e-01 -3.35151762e-01 -7.99964488e-01 +4.47481692e-01 +1.11975363e-02 +6.26204386e-02 +6.62696883e-02 +7.74561405e-01 -3.18632871e-01 +5.67028046e-01 +3.51655841e-01 +1.03081455e-02 +5.41582048e-01 +6.55665338e-01 -7.01228976e-02 -1.13595974e+00 -2.03956053e-01 +1.14900216e-01 -3.86566818e-01 -7.89894640e-01 +3.11374396e-01 +5.03502250e-01 -2.90330779e-02 -1.01702309e+00 +1.43500566e-01 +2.12336481e-01 -2.85895139e-01 +1.88740075e-01 -7.82131791e-01 -5.21859705e-01 -3.03827941e-01 -2.69246131e-01 -1.92446440e-01 +8.35429907e-01 -6.04085505e-01 +1.70377910e-01 -6.26496017e-01 -4.93782014e-01 -3.63893658e-01 +2.71714568e-01 -2.51461297e-01 -1.03122747e+00 -8.08999240e-01 -1.40122399e-01 +3.82314712e-01 -5.74052274e-01 +1.52419761e-01 +1.81547135e-01 +4.70123231e-01 -7.54930317e-01 -4.86486554e-01 +2.20516175e-01 -5.34236372e-01 -5.02982661e-02 -3.42008591e-01 -2.86909901e-02 +3.20456445e-01 -1.80990189e-01 -8.53959322e-01 +2.55197376e-01 +3.57380569e-01 +1.15073331e-01 -5.14004827e-01 -1.85980558e-01 -6.66350871e-02 +4.63681728e-01 +4.70794171e-01 +4.06557679e-01 +1.31453395e-01 -1.40635893e-01 -3.54050726e-01 -2.81773418e-01 +7.45381176e-01 +4.10301656e-01 -3.72601539e-01 -9.12056804e-01 -1.61770079e-02 -1.31620541e-01 -2.68715084e-01 -5.41395333e-04 +4.85227555e-01 -1.30927312e+00 +2.05137745e-01 -2.02144966e-01 -4.93971020e-01 -1.24774694e-01 -5.52528679e-01 -2.68730670e-01 -1.54624581e-01 -2.99028426e-01 -2.35697344e-01 -3.78037453e-01 +2.21518144e-01 -3.83163132e-02 +1.75496027e-01 +6.53868914e-01 +1.57612972e-02 +3.08846533e-01 -4.82642651e-01 -3.46233696e-02 -4.19471473e-01 -6.54678643e-01 -5.71070492e-01 -3.35128516e-01 +2.56093115e-01 -2.74250120e-01 -1.74216163e+00 +1.64169610e-01 +7.69270897e-01 +5.88367462e-01 -1.09617150e+00 -4.29210126e-01 +7.94187903e-01 +1.81654930e-01 -1.90522254e-01 -1.95923328e-01 +1.89437866e-01 -1.42749064e-02 +2.97143936e-01 -1.58178523e-01 +1.83672175e-01 -5.05947232e-01 -1.33769417e+00 -3.84296358e-01 -1.52338520e-02 +2.57340163e-01 -1.49830878e-01 -1.35673076e-01 +5.75636089e-01 +5.73156118e-01 +1.32637608e+00 +4.68494371e-02 -2.70439625e-01 -2.05335811e-01 -1.88336968e-01 +3.12019765e-01 +3.16742361e-01 -1.00742005e-01 +8.71050917e-03 +2.08352625e-01 -4.92202282e-01 -5.43297119e-02 +1.18402243e-01 +5.91745861e-02 -6.13631725e-01 -2.03841358e-01 -5.07831097e-01 +3.00851464e-01 +4.61668849e-01 -2.25254580e-01 +7.08375424e-02 +1.91102959e-02 +3.50775123e-01 +5.71825020e-02 -5.79107761e-01 +4.82004195e-01 +8.16199064e-01 -9.33366716e-01 +4.76454318e-01 +1.37278572e-01 -9.53749895e-01 +1.19061634e-01 +9.60455954e-01 +1.47478193e-01 +2.15624839e-01 +8.15138817e-01 -1.02300800e-01 +1.57335967e-01 -2.97359765e-01 +4.64941338e-02 -2.36085713e-01 -2.58172154e-01 -9.08527598e-02 +4.85866368e-01 +2.74783224e-01 -2.31452644e-01 +5.06803691e-01 +4.20811266e-01 +1.01993918e+00 +2.88041353e-01 -4.76886611e-03 +7.70487130e-01 +5.49587786e-01 +8.48027647e-01 +1.09495737e-01 +4.73922580e-01 +8.32701623e-02 +4.30928558e-01 -3.29463929e-01 +1.33826479e-01 +7.01186061e-01 +1.37386560e+00 +2.89154053e-01 -2.28822291e-01 +7.74039268e-01 -1.45706967e-01 +5.37961200e-02 +7.82806799e-02 -1.01017237e-01 -2.00257972e-01 +4.95217770e-01 -7.26060092e-01 -1.47620365e-01 +7.83943683e-02 -5.14903486e-01 +2.60907803e-02 +8.92968178e-01 +4.87555236e-01 +1.86928455e-02 -6.52675092e-01 -4.11787987e-01 -8.23929608e-02 +6.76533580e-01 -8.07011843e-01 -5.56670368e-01 -4.06095713e-01 -6.50524676e-01 +4.73853350e-01 -2.91927848e-02 -1.29539892e-01 -1.57128289e-01 +3.45911473e-01 -2.28654012e-01 -5.47854863e-02 +2.00361744e-01 +1.45619214e-01 +2.99756259e-01 +7.25173801e-02 -3.33554089e-01 +7.56901443e-01 +1.10394359e+00 -1.70455575e-01 +3.09417099e-01 +9.64520931e-01 -3.01789135e-01 -2.02101514e-01 +1.03497446e-01 +1.54166654e-01 +9.09389079e-01 +4.91578609e-01 -4.21341330e-01 -4.82870042e-02 +1.20631538e-01 -3.70771557e-01 +7.59551942e-01 -2.42769107e-01 +1.34098932e-01 -6.22029483e-01 +1.80405068e+00 -3.69434386e-01 -1.14717789e-01 -5.00547647e-01 -6.18308373e-02 +2.33811408e-01 +6.09784052e-02 -6.72547519e-01 +8.73061955e-01 -3.09919357e-01 +9.29120958e-01 +2.16955110e-01 +2.74820197e-02 -4.35445249e-01 +2.14455947e-01 -3.98795843e-01 +6.93779707e-01 -8.02405000e-01 -1.37185371e+00 -4.99476969e-01 -3.39432329e-01 -1.75840855e+00 +5.45287788e-01 +1.24301136e+00 +8.32457364e-01 -1.12708652e+00 +7.48380184e-01 -1.95266366e-01 -6.84518278e-01 +1.96492255e-01 +3.92480046e-02 +8.58809352e-01 +1.45954648e-02 +1.55119136e-01 +2.00282305e-01 -3.34242135e-01 -8.92865479e-01 +5.76044559e-01 +1.36516258e-01 +4.95748878e-01 +1.60571828e-01 -4.13023025e-01 +7.01753944e-02 -1.19705513e-01 +3.80654298e-02 +7.03124925e-02 +1.51342046e+00 +5.11085808e-01 +3.52342457e-01 +6.93863451e-01 +5.59571147e-01 -3.11916828e-01 -4.21123534e-01 +3.87055099e-01 -6.10272229e-01 +9.08341885e-01 +6.26679599e-01 +8.72821435e-02 +6.40936852e-01 +1.69263035e-01 +6.27288342e-01 +6.97524786e-01 +3.70424569e-01 -8.94762635e-01 -3.17277133e-01 -2.41934538e-01 +8.32622707e-01 -5.86579561e-01 -5.40798008e-02 -1.84201121e-01 -2.81072110e-01 +1.05289936e-01 +5.13115287e-01 +9.20750141e-01 +8.14272344e-01 -2.56058842e-01 -6.69152558e-01 +6.63634002e-01 -2.29477391e-01 +8.09525177e-02 +4.80892807e-01 -3.93566072e-01 +2.16192365e-01 -4.95124400e-01 -2.67049551e-01 +6.05439425e-01 +8.34738389e-02 -3.72820228e-01 +2.51554120e-02 -5.61001480e-01 +1.37234610e-02 -3.27586442e-01 +3.08838964e-01 -6.67352080e-01 +1.36474580e-01 -7.15196272e-03 +2.19157785e-01 -2.43748039e-01 +6.30041242e-01 +1.04489386e+00 -8.65915537e-01 +8.35429952e-02 +2.44995758e-01 +2.61597842e-01 -2.54860610e-01 -1.02227502e-01 +5.66031933e-01 -2.42823869e-01 -1.00490880e+00 +6.03403859e-02 -1.83969900e-01 +2.50896923e-02 +2.30857730e-01 +6.28376365e-01 +9.92502630e-01 -8.93125832e-01 -1.20773566e+00 -6.53744876e-01 -1.33028207e-02 -1.38753280e-01 -1.04336902e-01 +2.04768348e-02 +4.99224395e-01 +8.98883045e-02 +3.45436893e-02 +5.82454920e-01 +8.77692521e-01 -5.32877505e-01 +1.69726574e+00 +1.11974740e+00 -2.96280712e-01 -4.14695740e-01 +1.39007255e-01 +8.61287534e-01 -3.36288869e-01 +2.11027145e-01 -6.08655691e-01 +5.60573280e-01 -3.78772199e-01 -6.37414336e-01 -1.52633235e-01 +9.53789949e-01 +1.58262879e-01 -5.28737307e-01 +4.69966888e-01 -8.25288612e-03 -1.05143213e+00 +1.88990235e-01 -9.63778198e-02 +1.53085768e-01 -1.29915044e-01 -2.10166839e-03 +1.53971151e-01 +8.45280290e-03 +1.99362636e-02 +3.74406010e-01 -3.88280898e-01 +1.41564935e-01 +7.04970419e-01 +1.35878205e-01 +8.51993501e-01 +1.09031580e-01 +8.37946117e-01 -1.31507909e+00 +2.69215973e-03 +1.51107714e-01 -1.80147871e-01 -1.14121996e-01 -1.68021575e-01 -5.11495471e-01 +5.83945572e-01 +6.09697960e-02 +4.56025153e-01 +3.21525633e-01 +6.50671422e-01 +3.80113810e-01 +5.40519059e-01 +4.98701125e-01 -1.06289876e+00 -4.70989555e-01 -2.38977045e-01 -1.86290115e-01 +2.02667087e-01 -1.26963392e-01 +3.69108506e-02 -3.73063803e-01 -4.14565772e-01 -1.13811648e+00 +3.49001408e-01 +2.75373220e-01 +5.65320719e-03 +2.06685305e-01 -4.06743705e-01 +6.13756359e-01 -3.96493301e-02 -1.21046014e-01 +2.57108152e-01 +1.72552377e-01 +1.55213609e-01 +9.40759256e-02 -4.08659160e-01 -3.05950940e-01 -1.20724216e-01 -2.85929859e-01 +3.74979794e-01 -2.62120273e-02 -1.14895955e-01 +3.07828814e-01 +7.98000038e-01 -1.28076643e-01 +1.12515219e-01 -7.75272906e-01 +2.10303858e-01 -7.26101279e-01 -5.62058628e-01 +5.41456103e-01 +2.98626840e-01 -3.25441986e-01 +2.24232286e-01 +1.32324487e-01 +8.23938996e-02 +4.71467823e-02 +1.26516759e-01 -1.40847251e-01 -7.67399371e-01 -1.26407547e-02 +3.90881859e-02 +2.22791120e-01 -9.27802622e-01 +1.01929642e-01 +1.40039787e-01 +8.42250511e-02 -3.76397252e-01 +6.33649603e-02 +2.28771448e-01 -1.55221475e-02 +4.67114449e-01 +3.31867754e-01 +9.16906893e-02 +1.28972575e-01 -4.40688610e-01 -3.07619929e-01 -4.37686313e-03 +1.23537900e-02 +4.11433935e-01 +2.46388182e-01 -9.25791487e-02 +4.08930361e-01 -5.04575014e-01 -8.04218724e-02 -5.24141610e-01 +5.41008301e-02 -7.40797818e-02 -2.99574971e-01 +2.05097884e-01 -7.50278011e-02 +8.82378638e-01 +1.26120135e-01 -6.03234410e-01 +4.11440879e-01 +8.27480257e-01 -5.73960364e-01 -1.20217696e-01 +5.74833155e-02 +2.84429163e-01 +4.88539934e-01 +1.57156855e-01 +1.73944712e-01 +5.79560280e-01 -8.73437285e-01 +4.55614448e-01 +7.81025290e-01 +1.53676853e-01 -3.56255591e-01 +9.45268795e-02 +3.96692634e-01 -1.60877019e-01 +8.67974520e-01 +1.71553850e-01 +3.51264179e-01 -3.50373536e-01 +4.85522985e-01 -2.72086531e-01 +3.22159797e-01 -4.05849338e-01 -9.76392850e-02 +9.14654583e-02 -7.16740191e-01 -2.67125726e-01 -3.12983274e-01 -2.65193164e-01 +9.45511982e-02 +3.87324125e-01 -2.66216904e-01 -4.86248732e-01 -4.22211140e-01 -1.90216839e-01 -2.99199730e-01 +4.92693186e-02 -1.85918942e-01 +2.09988087e-01 -4.78722434e-03 +1.55371934e-01 -2.59039968e-01 -2.84865171e-01 +7.83177316e-01 +7.23766565e-01 -2.08977044e-01 +3.74061614e-01 -6.81101143e-01 +2.53436953e-01 -3.48291099e-01 +6.46032244e-02 -8.07679370e-02 +6.80902362e-01 +2.10425407e-01 -4.28491831e-02 +4.06457663e-01 -1.67846248e-01 -4.85273778e-01 +8.63526106e-01 -8.62517118e-01 -4.11984371e-03 +2.48654842e-01 +2.72321403e-01 +4.82288189e-02 +3.20757627e-01 +3.22942555e-01 +8.24767351e-01 -7.36581385e-01 +4.75741267e-01 +4.48801890e-02 +6.98721409e-01 +6.79515302e-02 -1.25346673e+00 -1.43503770e-01 +5.84809408e-02 +1.99167076e-02 +6.85060322e-02 +6.92971468e-01 +1.97283268e-01 -2.76088893e-01 +5.87177932e-01 -1.08467150e+00 -6.29368722e-01 -1.54464161e-02 -3.40017527e-01 +5.30542850e-01 +7.68051624e-01 +1.33832078e-02 -2.96698183e-01 -7.66329587e-01 +1.65157974e-01 +5.55226386e-01 +9.73782480e-01 -2.45118290e-01 +7.27329031e-02 -6.92297161e-01 -6.52635276e-01 +4.88594733e-02 +3.65068972e-01 +4.56280828e-01 +1.18295550e+00 +1.23619631e-01 +2.68656850e-01 -1.95624560e-01 +8.47473368e-02 +7.38782436e-03 +5.15814722e-01 +4.09438044e-01 +7.06051350e-01 -5.88153541e-01 -1.00941312e+00 +9.99790654e-02 -9.83417258e-02 -4.28675413e-01 -9.69727397e-01 +2.37746477e-01 +1.83218920e+00 +1.16656137e+00 +6.04506969e-01 +4.06038612e-01 -1.70937312e+00 -3.73828292e-01 -7.73835540e-01 -1.30078167e-01 +4.72496033e-01 +1.47389448e+00 -7.33036697e-01 -1.42766861e-04 -6.35923624e-01 +1.20580010e-01 +1.13604784e-01 +6.29699349e-01 +5.85705519e-01 -2.09407583e-01 -1.81536269e+00 +1.17971671e+00 +3.16674799e-01 -1.29077780e+00 +2.53775567e-01 +3.44021857e-01 -6.13813221e-01 -1.98507085e-01 -3.27409178e-01 +1.87868759e-01 +4.93056029e-02 